SVM-light Version V5.01-TK-1.5
5 # kernel type
3 # kernel parameter -d 
1 # kernel parameter -g 
1 # kernel parameter -s 
1 # kernel parameter -r 
empty# kernel parameter -u 
0.4 # kernel parameter -L 
1 # kernel parameter -T 
T # kernel parameter -C 
1 # kernel parameter -F 
1 # kernel parameter -S 
0.400000 # kernel parameter -M 
3 # kernel parameter -N 
S # kernel parameter -V 
A # kernel parameter -W 
0 # kernel parameter -U 
10 # highest feature index 
24456 # number of training documents 
12105 # number of support vectors plus 1 
-0.99900357 # threshold b, each following line is a SV (starting with alpha*y)
-1.0604255825458088757784480549162  |BT| (joint (Apart (from eBay & Amazon , what UK online seller sites are there ))(It (should generally only take a few hours at best ))) |ET| 
-1.0604255825458088757784480549162  |BT| (joint (attribution (How (long doe))(it (usually take you to get the code for your music downloads at clubbing.com )))(nextag (, qvc , hsn Play.co))) |ET| 
0.4644501725747158804580294599873  |BT| (joint (Apart (from eBay & Amazon , what UK online seller sites are there ))(nextag (, qvc , hsn Play.co))) |ET| 
0.79395130403836033927689186384669  |BT| (joint (attribution (How (long doe))(it (usually take you to get the code for your music downloads at clubbing.com )))(It (should generally only take a few hours at best ))) |ET| 
2.1208511650916177515568961098325  |BT| (joint) |ET| 
-1.0604255825458088757784480549162  |BT| (contrast (joint (temporal (Okay (, Before I EVEN BEGIN ))(attribution (I (got ta sa))(that (I ABSOLUTELY LOATHE screamers ))))(joint (They (are horribl))(and (mean ))))(explanation (But (I once had my little brotherwho says hes not afraid of anything ))(contrast (joint (attribution (joint (do (the scary maze gameas a joke of cours))(and (It scared him sooooooooooo bad )))(he (jumped like 2 feet off the ground )))(It (was funnnyyyyy )))(background (But (I hate i))(when (the jokes on u )))))) |ET| 
-1.0604255825458088757784480549162  |BT| (joint (elaboration (contrast (elaboration (attribution (on (chat roulette i cant hear the other person help So ))(I (have one main tumblr blog )))(That (was how it was for a while )))(But (today , I wanted to start another blog )))(elaboration (explanation (So (, on my dashboard , I went over to the sidebar on the left ))(joint (click (the name of my original blog ))(and (then click create new blog ))))(joint (elaboration (elaboration (I (created it ))(even (posted in it )))(background (When (I went back to my dashboard ))(it (disappeared ))))(joint (attribution (I (dont kno))(where (it went )))(It (just listed my original blog ))))))(Someone (please help m))) |ET| 
1.9720523784974408609826923566288  |BT| (joint (attribution)) |ET| 
-1.0604255825458088757784480549162  |BT| (joint (attribution)) |ET| 
0.88100292353597464689585194719257  |BT| (contrast (joint (temporal (Okay (, Before I EVEN BEGIN ))(attribution (I (got ta sa))(that (I ABSOLUTELY LOATHE screamers ))))(joint (They (are horribl))(and (mean ))))(explanation (But (I once had my little brotherwho says hes not afraid of anything ))(contrast (joint (attribution (joint (do (the scary maze gameas a joke of cours))(and (It scared him sooooooooooo bad )))(he (jumped like 2 feet off the ground )))(It (was funnnyyyyy )))(background (But (I hate i))(when (the jokes on u )))))) |ET| 
1.5759025625335214559896712671616  |BT| (contrast (joint (temporal (attribution))(joint))(explanation (contrast (joint (attribution (joint)))(background)))) |ET| 
-1.0604255825458088757784480549162  |BT| (attribution (joint (elaboration)(elaboration))) |ET| 
-1.0604255825458088757784480549162  |BT| (joint (attribution)) |ET| 
-1.0604255825458088757784480549162  |BT| (attribution (elaboration)(joint (attribution))) |ET| 
2.11695997964319371220653920318  |BT| (attribution (joint (elaboration)(elaboration))) |ET| 
-1.0604255825458088757784480549162  |BT| (attribution (joint (elaboration)(elaboration))) |ET| 
-1.0604255825458088757784480549162  |BT| (contrast (joint (temporal (attribution))(joint))(explanation (contrast (joint (attribution (joint)))(background)))) |ET| 
1.7967092334931176189627421990735  |BT| (attribution (elaboration)(joint (attribution))) |ET| 
-1.0604255825458088757784480549162  |BT| (elaboration (2 (girls 1 finger link to actual video Does anyone have one Ive seen 2 girls 1 cup and now I just heard of this and Im curious because everyone is saying its worse ))(attribution (I (didnt kno))(that (was possibl)))) |ET| 
-1.0604255825458088757784480549162  |BT| (contrast (elaboration (how (do I get my web pages bigger on my browser ))(joint (They (are tin))(same-unit (and (I cant read them As the administrator on my netboo))(attribution (I (notic))(that (the letters are wrong ))))))(elaboration (But (on the other use))(the (letters are righ)))) |ET| 
-1.0604255825458088757784480549162  |BT| (elaboration (elaboration (elaboration (contrast (how (do i get unbaned ))(i (am using a freinds computers to type this Call your Internet Service Provider )))(O (You never go back )))(elaboration (Also (, just send the internet an apology letter and promise not to download so many illegal movies and porn ))(attribution (I (be))(that (sucker will believe you )))))(you (did not give any information on why and who banned yo))) |ET| 
0.13004264373322738101990125869634  |BT| (elaboration (elaboration (joint (joint (joint (elaboration)(joint))))(elaboration (condition)(elaboration (same-unit (elaboration))(joint))))) |ET| 
-1.0604255825458088757784480549162  |BT| (attribution (joint (elaboration)(elaboration))) |ET| 
-1.0604255825458088757784480549162  |BT| (elaboration (elaboration (elaboration)(elaboration (elaboration)))(attribution (joint (elaboration)(elaboration (elaboration (elaboration)))))) |ET| 
0.99293625754329306598577886688872  |BT| (elaboration (2 (girls 1 finger link to actual video Does anyone have one Ive seen 2 girls 1 cup and now I just heard of this and Im curious because everyone is saying its worse ))(attribution (I (didnt kno))(that (was possibl)))) |ET| 
1.0330756596951995440747396060033  |BT| (contrast (elaboration (how (do I get my web pages bigger on my browser ))(joint (They (are tin))(same-unit (and (I cant read them As the administrator on my netboo))(attribution (I (notic))(that (the letters are wrong ))))))(elaboration (But (on the other use))(the (letters are righ)))) |ET| 
0.68877545541447071641982802248094  |BT| (elaboration (elaboration (elaboration (topic-comment (I (just got banned fomr the internet ))(contrast (how (do i get unbaned ))(i (am using a freinds computers to type this Call your Internet Service Provider ))))(:O (You never go back )))(elaboration (Also (, just send the internet an apology letter and promise not to download so many illegal movies and porn ))(attribution (I (be))(that (sucker will believe you )))))(you (did not give any information on why and who banned yo))) |ET| 
-1.0604255825458088757784480549162  |BT| (joint (attribution)) |ET| 
-1.0604255825458088757784480549162  |BT| (attribution (elaboration)(joint (attribution))) |ET| 
2.1208511650916177515568961098325  |BT| (attribution (joint (elaboration)(elaboration))) |ET| 
-1.0604255825458088757784480549162  |BT| (elaboration (textual-organization (elaboration (attribution)(attribution (elaboration))))(explanation)) |ET| 
0.65778616618424434747680606960785  |BT| (elaboration (elaboration (elaboration)(elaboration (elaboration)))(elaboration (elaboration (elaboration)(attribution (joint))))) |ET| 
-1.0604255825458088757784480549162  |BT| (elaboration (elaboration (elaboration)(elaboration (elaboration)))(attribution (joint (elaboration)(elaboration (elaboration (elaboration)))))) |ET| 
2.0649773737319772060061495722039  |BT| (joint (attribution)) |ET| 
-1.0604255825458088757784480549162  |BT| (elaboration (elaboration (elaboration)(elaboration))(elaboration (elaboration (elaboration (attribution (joint))(elaboration (attribution (joint))))))) |ET| 
-1.0604255825458088757784480549162  |BT| (attribution (elaboration)(joint (attribution))) |ET| 
-1.0604255825458088757784480549162  |BT| (elaboration (joint (attribution))) |ET| 
0.22863458668203584522871096851304  |BT| (elaboration (elaboration)(elaboration (elaboration (elaboration)))) |ET| 
-1.0604255825458088757784480549162  |BT| (elaboration (elaboration (elaboration)(elaboration (elaboration)))(attribution (joint (elaboration)(elaboration (elaboration (elaboration)))))) |ET| 
-1.0604255825458088757784480549162  |BT| (elaboration (elaboration (elaboration)(elaboration))(elaboration (elaboration (elaboration (attribution (joint))(elaboration (attribution (joint))))))) |ET| 
-1.0604255825458088757784480549162  |BT| (elaboration (elaboration)(elaboration (elaboration))) |ET| 
0.051190883329952578673083252169818  |BT| (elaboration (elaboration (Where ('s a good blog sit))(elaboration (that (wo n't limit the amoun))(of (characters in my blog ))))(contrast (same-unit (The (one I 'm using ))(is (n't even that lon)))(same-unit (elaboration (elaboration (but (it wont allow it all i))(using (blogspo)))(it (restricts my character)))(enablement (not (only that it wont let me comment on my ow))(to (post the rest www.blogspot.com www.tumblr.co)))))) |ET| 
-1.0604255825458088757784480549162  |BT| (elaboration (joint)) |ET| 
0.0295544066059398070900332555766  |BT| (elaboration (elaboration (elaboration (Hope (this is helpful ))(I (am speaking from experience )))(elaboration (enablement (These (marketing tools are just that to get yo))(to (buy somethin)))(background (you (probably didnt want to bu))(explanation (jus)(because (you want to get something for free ))))))(BS (dont trus))) |ET| 
-1.0604255825458088757784480549162  |BT| (contrast (joint (temporal (attribution))(joint))(explanation (contrast (joint (attribution (joint)))(background)))) |ET| 
1.0233687050833417675477221564506  |BT| (attribution (elaboration)(joint (attribution))) |ET| 
-1.0604255825458088757784480549162  |BT| (elaboration (elaboration (elaboration)(attribution))) |ET| 
2.1208511650916177515568961098325  |BT| (textual-organization (elaboration)) |ET| 
-1.0604255825458088757784480549162  |BT| (elaboration (joint (attribution))) |ET| 
-1.0604255825458088757784480549162  |BT| (elaboration (joint (attribution))(condition)) |ET| 
0.13029652316769629871728852776869  |BT| (elaboration (elaboration (same-unit (elaboration (same-unit (elaboration (elaboration))))(attribution (joint)))(elaboration (joint)(explanation)))) |ET| 
-1.0604255825458088757784480549162  |BT| (elaboration (attribution (joint))(attribution (background))) |ET| 
0.0064901784555859709513470079400577  |BT| (elaboration (First (Thing Problem ISP Sucks Description Your friends ISP may suck ))(same-unit (attribution (joint (One (of the worst Internet Service Providers rhymes with Cel))(and (starts with a B. I cant legally sa)))(who (but I thin)))(you (have the poin)))) |ET| 
-1.0604255825458088757784480549162  |BT| (elaboration (elaboration (elaboration)(attribution (joint (elaboration))))) |ET| 
-1.0604255825458088757784480549162  |BT| (elaboration (joint (attribution))) |ET| 
-1.0604255825458088757784480549162  |BT| (elaboration (joint)) |ET| 
-1.0604255825458088757784480549162  |BT| (elaboration (elaboration (joint (attribution)))(joint)) |ET| 
1.7029211008361080370576701170648  |BT| (elaboration (attribution (joint (elaboration)))(attribution (background))) |ET| 
-1.0604255825458088757784480549162  |BT| (elaboration (attribution (joint))(attribution (background))) |ET| 
-1.0604255825458088757784480549162  |BT| (contrast (attribution (joint))) |ET| 
2.1018552236108218878030129417311  |BT| (elaboration (joint)) |ET| 
2.0995949026474409748743710224517  |BT| (condition (joint (attribution (contrast (attribution (joint)))))) |ET| 
-1.0604255825458088757784480549162  |BT| (elaboration (joint)) |ET| 
-1.0604255825458088757784480549162  |BT| (joint (elaboration (joint))(elaboration)) |ET| 
1.0718575550691282760595868239761  |BT| (elaboration (elaboration (elaboration (joint (elaboration)(joint (attribution)))(condition (attribution (attribution))))(attribution (joint)))) |ET| 
-1.0604255825458088757784480549162  |BT| (joint (elaboration (elaboration))) |ET| 
2.1156799178044689568878311547451  |BT| (elaboration (joint)) |ET| 
-1.0604255825458088757784480549162  |BT| (joint (elaboration (elaboration (elaboration (textual-organization (elaboration (elaboration))))(contrast (elaboration))))(joint (elaboration)(joint (elaboration)))) |ET| 
-1.0604255825458088757784480549162  |BT| (elaboration (joint)) |ET| 
0.68939219198901879881447030129493  |BT| (contrast (joint (elaboration (attribution)(elaboration))(joint))(joint (background)(same-unit (elaboration)))) |ET| 
-1.0604255825458088757784480549162  |BT| (elaboration (attribution (joint))(attribution (background))) |ET| 
-1.0604255825458088757784480549162  |BT| (contrast (joint (temporal (attribution))(joint))(explanation (contrast (joint (attribution (joint)))(background)))) |ET| 
-1.0604255825458088757784480549162  |BT| (joint (elaboration)(joint (attribution))) |ET| 
0.0064303210429357826605212267168099  |BT| (elaboration (joint (elaboration (attribution (Am (i alone no haha i though))(that (i was alone )))(the (same thing happens to me )))(joint (i (got a lot of questions and i cant respond to them ))(whats (worse , is that my following page isnt working either ))))(elaboration (joint (contrast (im (following like a million people ))(but (none of their answers has showed up since last week )))(attribution (and (im positiv))(joint (that (they have all been answering question))(and (for some reason im not seeing them )))))(background (aahh)(when (is formspring gon na work again ))))) |ET| 
-1.0604255825458088757784480549162  |BT| (joint (elaboration (elaboration))) |ET| 
1.6484748063519629734940963317058  |BT| (contrast (joint (temporal (attribution))(joint))(explanation (contrast (joint (attribution (joint)))(background)))) |ET| 
-1.0604255825458088757784480549162  |BT| (elaboration (elaboration (elaboration (joint (elaboration))))) |ET| 
2.1208511650916177515568961098325  |BT| (joint (elaboration)(joint (attribution))) |ET| 
-1.0604255825458088757784480549162  |BT| (elaboration (joint (attribution (joint)))) |ET| 
0.0035199548510495559661137576767942  |BT| (elaboration (joint (joint (joint (elaboration (Anyone (know of any legit online job))(that (doesnt require any training )))(... (or any upfront costs )))(condition (elaboration (is (there really anything out there like that ))(that (is really legit )))(joint (if (so what do you have to d))(and (how much does it pay )))))(joint (Think (of your skills , what can you offer ))(joint (elaboration (Browse (the Craigs List classifieds. , lots of scams ))(but (some actual good jobs )))(joint (I ('ve been looking on and off for a long tim))(and (got lucky last week ))))))(elaboration (joint (joint (Why (not start your own thing ))(get (a site )))(add (some adverts and drive traffic to it )))(there ('s some free vids at : http://bestinternetfind.solutionsarticles.com/free-wo)))) |ET| 
-1.0604255825458088757784480549162  |BT| (joint (elaboration (elaboration))) |ET| 
-1.0604255825458088757784480549162  |BT| (elaboration (elaboration)(elaboration (elaboration))) |ET| 
0.0076334444365051545844380598282441  |BT| (elaboration (elaboration (condition (If (you are planing on selling something with the website then your domain name is the most important thin))(you (must take into consideration )))(elaboration (The (websites name will be your best option for search engine))(elaboration (to (find your websit))(so (its best to try and get at least one of your keywords or main product names into the website domain )))))(condition (for (exampl))(elaboration (if (your are selling apple cider from your uncle Bobs Apple Tree distillery somethin))(like (www.unclebobsappletree.com would be a good choic))))) |ET| 
-1.0604255825458088757784480549162  |BT| (elaboration (elaboration)(joint (elaboration))) |ET| 
2.1208511650916177515568961098325  |BT| (attribution (background)) |ET| 
1.3821871852818998771539327208302  |BT| (elaboration (elaboration (elaboration (elaboration)))(elaboration (same-unit (elaboration)))) |ET| 
-1.0604255825458088757784480549162  |BT| (elaboration (elaboration)(attribution (background (contrast)(attribution)))) |ET| 
0.64314914343803897267548563831951  |BT| (joint (elaboration (elaboration))) |ET| 
-1.0604255825458088757784480549162  |BT| (joint (elaboration)(joint (attribution))) |ET| 
0.75504214874562003423363876208896  |BT| (elaboration (attribution (joint (elaboration)))(attribution (background))) |ET| 
-1.0604255825458088757784480549162  |BT| (elaboration (elaboration (elaboration (attribution)(elaboration (attribution (attribution (background (elaboration (joint (joint (attribution (attribution))))))))(elaboration))))(elaboration)) |ET| 
2.1208511650916177515568961098325  |BT| (elaboration (elaboration (elaboration)(contrast))(attribution (background (contrast)(attribution)))) |ET| 
-1.0604255825458088757784480549162  |BT| (elaboration (elaboration)(attribution (background (contrast)(attribution)))) |ET| 
-1.0604255825458088757784480549162  |BT| (elaboration (elaboration (attribution (background)))) |ET| 
-1.0604255825458088757784480549162  |BT| (joint (elaboration)(joint (attribution))) |ET| 
-1.0604255825458088757784480549162  |BT| (elaboration (elaboration)(contrast)) |ET| 
0.42417980889332784766310169288772  |BT| (elaboration (elaboration (elaboration (joint)))(elaboration (elaboration (attribution (joint))(elaboration (background)(enablement))))) |ET| 
-1.0604255825458088757784480549162  |BT| (elaboration (elaboration)(elaboration (elaboration))) |ET| 
2.1208511650916177515568961098325  |BT| (joint (elaboration)(joint (attribution))) |ET| 
-1.0604255825458088757784480549162  |BT| (elaboration (elaboration (elaboration))(elaboration (elaboration (elaboration)))) |ET| 
0.12204256589715584135902304296906  |BT| (elaboration (elaboration (elaboration (elaboration (elaboration (I (laugh at peopl))(who (say its not possible )))(They (just dont have any experience with Internet marketing )))(elaboration (same-unit (elaboration (Start (off with a blog ))(put (Google ads on i)))(same-unit (and (you will be making small amounts ))(attribution (lets (sa))(1 (per day with traffic coming from Google )))))(elaboration (same-unit (Now)(condition (if (you can make a blog in 20 minutes ))(attribution (lets (say you make 3 a day ))(thats (1 hour per day )))))(So (every day you grow by 3day )))))(elaboration (elaboration (condition (On (your 100th day ))(you (will make 300day )))(joint (elaboration (This (is the easiest wa))(attribution (to (g))(elaboration (but (there are literally 1000s of way))(to (make money online )))))(joint (Hope (I helped ))(Swagbucks))))(Totally (legit ))))(Ive (made way over 50 in amazo))) |ET| 
-1.0604255825458088757784480549162  |BT| (elaboration (elaboration (joint (attribution)))(joint)) |ET| 
-1.0604255825458088757784480549162  |BT| (joint (joint (attribution))) |ET| 
1.9364113466970409582756929012248  |BT| (elaboration (elaboration (elaboration)(contrast (attribution)))) |ET| 
-1.0604255825458088757784480549162  |BT| (elaboration (elaboration (elaboration))(elaboration (elaboration (elaboration)))) |ET| 
-1.0604255825458088757784480549162  |BT| (elaboration (elaboration (elaboration (elaboration))(contrast (attribution)))) |ET| 
0.0019992032189156861039791568401824  |BT| (elaboration (elaboration (please (help ))(elaboration (elaboration (same-unit (elaboration (10 (pts to the perso))(who (helps the most Place your router over your head )))(wait (5 minutes )))(temporal (With (it still above your head go onto your computer and press altf))(while (looking at this answer ))))(elaboration (Try (moving your router to a different location closer to your computer or near an outside wall ))(This (will hopefully increase the signal for your internet towards your computer )))))(condition (joint (condition (If (this does not work ))(you (should call comcas)))(and (chec)))(if (there is a strong singal in your are)))) |ET| 
1.892781989129515451963925443124  |BT| (elaboration (elaboration)(elaboration (elaboration (elaboration)))) |ET| 
-1.0604255825458088757784480549162  |BT| (elaboration (elaboration (joint (elaboration (joint))(joint (attribution (attribution))))(same-unit (elaboration)))(attribution)) |ET| 
0.030221701709099130228608487414022  |BT| (elaboration (elaboration (contrast (elaboration (background))(joint (same-unit (background))))(elaboration (same-unit (elaboration)(elaboration (elaboration)))(elaboration)))(contrast)) |ET| 
-1.0604255825458088757784480549162  |BT| (joint (joint (attribution))) |ET| 
-1.0604255825458088757784480549162  |BT| (elaboration (joint (condition (joint (attribution (contrast (elaboration)))))(same-unit (joint (attribution))))(attribution (joint))) |ET| 
0.31311598535237761264937716987333  |BT| (elaboration (elaboration (elaboration (elaboration)(elaboration))(evaluation (enablement (temporal))))(condition (joint)(elaboration))) |ET| 
-1.0604255825458088757784480549162  |BT| (elaboration (elaboration)(attribution (background (contrast)(attribution)))) |ET| 
-1.0604255825458088757784480549162  |BT| (joint (elaboration (joint (same-unit (elaboration (elaboration)(attribution (background)))))(contrast (elaboration)(same-unit (elaboration))))(joint (elaboration (joint)))) |ET| 
0.56059815248224387218556330481078  |BT| (elaboration (explanation (joint (attribution))(joint (joint (joint (joint (joint (attribution (elaboration (attribution)))))))))) |ET| 
-1.0604255825458088757784480549162  |BT| (joint (joint (attribution))) |ET| 
-1.0604255825458088757784480549162  |BT| (elaboration (joint)) |ET| 
-1.0604255825458088757784480549162  |BT| (elaboration (joint (joint))) |ET| 
1.8607707647094919867214457553928  |BT| (elaboration (joint (same-unit (elaboration (elaboration)(attribution (background)))))(contrast (elaboration)(same-unit (elaboration)))) |ET| 
-1.0604255825458088757784480549162  |BT| (joint (elaboration (joint (same-unit (elaboration (elaboration)(attribution (background)))))(contrast (elaboration)(same-unit (elaboration))))(joint (elaboration (joint)))) |ET| 
2.1208511650916177515568961098325  |BT| (elaboration (joint)) |ET| 
-1.0604255825458088757784480549162  |BT| (same-unit (elaboration)) |ET| 
0.98507668197425157785573901492171  |BT| (elaboration (joint (elaboration (contrast (elaboration))(joint (joint (attribution))))(joint (elaboration (joint (elaboration)))(joint)))) |ET| 
1.4321386733804115642954002396436  |BT| (elaboration (joint (elaboration))(same-unit (elaboration))) |ET| 
-1.0604255825458088757784480549162  |BT| (elaboration (elaboration)(contrast)) |ET| 
-1.0604255825458088757784480549162  |BT| (elaboration (elaboration (attribution (elaboration)(elaboration (elaboration)(contrast))))(contrast (attribution))) |ET| 
2.1208511650916177515568961098325  |BT| (same-unit (elaboration)) |ET| 
-1.0604255825458088757784480549162  |BT| (same-unit (elaboration)) |ET| 
0.99413419254110779732513947237749  |BT| (elaboration (elaboration)(contrast)) |ET| 
-1.0604255825458088757784480549162  |BT| (elaboration (elaboration (elaboration)(attribution (joint (elaboration))))) |ET| 
-1.0604255825458088757784480549162  |BT| (joint (elaboration)) |ET| 
0.13658559906229406077926569196279  |BT| (background (elaboration (elaboration (attribution))(contrast (elaboration)))) |ET| 
-1.0604255825458088757784480549162  |BT| (same-unit (elaboration)) |ET| 
0.35697873936712920528435688538593  |BT| (joint (elaboration)) |ET| 
-1.0604255825458088757784480549162  |BT| (elaboration (attribution (elaboration (condition (attribution))))) |ET| 
2.1208511650916177515568961098325  |BT| (elaboration (elaboration (elaboration)(attribution))) |ET| 
-1.0604255825458088757784480549162  |BT| (elaboration (elaboration (elaboration)(attribution))) |ET| 
-1.0604255825458088757784480549162  |BT| (elaboration (elaboration (elaboration (elaboration (elaboration)))(attribution))(elaboration)) |ET| 
2.1208511650916177515568961098325  |BT| (elaboration (attribution (elaboration (condition (attribution))))) |ET| 
-1.0604255825458088757784480549162  |BT| (elaboration (attribution (elaboration (condition (attribution))))) |ET| 
0.0056392570979347800275149893423077  |BT| (elaboration (elaboration (elaboration (elaboration (enablement)(elaboration)))(elaboration (elaboration (attribution (elaboration)))))(elaboration)) |ET| 
-1.0604255825458088757784480549162  |BT| (elaboration (elaboration (same-unit (background (elaboration)))(attribution (joint (elaboration))))(contrast (elaboration))) |ET| 
2.1208511650916177515568961098325  |BT| (elaboration (joint (elaboration (elaboration (elaboration (elaboration (elaboration (attribution (elaboration)))))))(joint))(attribution (elaboration)(elaboration))) |ET| 
-1.0604255825458088757784480549162  |BT| (elaboration (attribution (elaboration (condition (attribution))))) |ET| 
-1.0604255825458088757784480549162  |BT| (elaboration (elaboration (attribution (elaboration (attribution))))) |ET| 
1.5271960204590628862320045300294  |BT| (elaboration (joint (joint))(attribution (joint))) |ET| 
-1.0604255825458088757784480549162  |BT| (elaboration (joint (joint (joint))(elaboration))(attribution (joint (comparison)))) |ET| 
2.1208511650916177515568961098325  |BT| (elaboration (elaboration (attribution))) |ET| 
-1.0604255825458088757784480549162  |BT| (elaboration (elaboration (elaboration))(elaboration (elaboration (elaboration)))) |ET| 
1.8313014912510090503872106637573  |BT| (elaboration (attribution (elaboration (condition (attribution))))) |ET| 
-1.0604255825458088757784480549162  |BT| (joint (elaboration (elaboration (elaboration)))) |ET| 
0.07739318355991442466290664015105  |BT| (elaboration (same-unit (elaboration (condition)))(elaboration (attribution)(attribution (elaboration)))) |ET| 
-1.0604255825458088757784480549162  |BT| (elaboration (attribution (elaboration))) |ET| 
0.35348635396078531556440793792717  |BT| (elaboration (elaboration (elaboration (joint (elaboration (elaboration)))))(elaboration (elaboration (elaboration)))) |ET| 
-1.0604255825458088757784480549162  |BT| (elaboration (elaboration (elaboration (elaboration)(elaboration (same-unit (elaboration))(elaboration))))(elaboration (elaboration (elaboration)))) |ET| 
2.1208511650916177515568961098325  |BT| (elaboration (attribution (elaboration))) |ET| 
-1.0604255825458088757784480549162  |BT| (elaboration (attribution (elaboration))) |ET| 
-1.0604255825458088757784480549162  |BT| (elaboration (joint (attribution (elaboration)))(attribution)) |ET| 
0.017569132636541917591443962010089  |BT| (elaboration (What (is the most busiest and popular teen chat room ))(elaboration (elaboration (What (is a good chat roo))(that (always has lots of people in it BESIDES the chat rooms , Chat Avenue and TeenSpot )))(XAT.com (is a good spot )))) |ET| 
-1.0604255825458088757784480549162  |BT| (elaboration (elaboration (elaboration (elaboration)(elaboration (same-unit (elaboration))(elaboration))))(elaboration (elaboration (elaboration)))) |ET| 
-1.0604255825458088757784480549162  |BT| (elaboration (elaboration (elaboration)(elaboration (elaboration)))) |ET| 
1.139283831972171867619181284681  |BT| (same-unit (elaboration (attribution (elaboration (attribution (elaboration)))))) |ET| 
-1.0604255825458088757784480549162  |BT| (elaboration (attribution (elaboration))) |ET| 
-1.0604255825458088757784480549162  |BT| (elaboration (background)(elaboration (attribution (elaboration (attribution (elaboration (joint (elaboration)))))))) |ET| 
0.10867170485328792040036205435172  |BT| (elaboration (elaboration (elaboration (elaboration (joint)(joint (elaboration)(joint (background)))))(background (elaboration)))(condition)) |ET| 
-1.0604255825458088757784480549162  |BT| (elaboration (elaboration (elaboration)(elaboration (elaboration)))) |ET| 
2.1208511650916177515568961098325  |BT| (elaboration (attribution (elaboration))) |ET| 
-1.0604255825458088757784480549162  |BT| (elaboration (elaboration (elaboration))(elaboration)) |ET| 
0.094832302058827533386420327587985  |BT| (temporal (condition (condition (If (i am following a celeb on twitter and go katewinsletforexample can they see what i say to them on twitte))(elaboration (if (i want a cele))(to (reply to me ))))(how (do i do it ive tried typing and their nam)))(same-unit (elaboration (after (with my message but i dont get any replie))(i (havent protected my tweet)))(how (do i get them to repl)))) |ET| 
-1.0604255825458088757784480549162  |BT| (elaboration (joint (elaboration (attribution (elaboration))))) |ET| 
0.0062316285614458979263963200878607  |BT| (joint (finallyfast.com (does it work ))(joint (elaboration (elaboration (i (saw a commerical for this websit))(that (makes your computer faster ..)))(attribution (does (anyone kno))(if (it actually works ))))(thanks (:-RRB- Its a scam )))) |ET| 
-1.0604255825458088757784480549162  |BT| (elaboration (elaboration (elaboration)(elaboration (elaboration)))) |ET| 
-1.0604255825458088757784480549162  |BT| (elaboration (elaboration (attribution (elaboration (attribution))))) |ET| 
-1.0604255825458088757784480549162  |BT| (elaboration (elaboration (attribution (explanation)))(elaboration (elaboration))) |ET| 
0.1452407600439499235633888929442  |BT| (elaboration (condition (joint)(elaboration (attribution)))(elaboration)) |ET| 
-1.0604255825458088757784480549162  |BT| (joint (elaboration)) |ET| 
-1.0604255825458088757784480549162  |BT| (elaboration (joint (elaboration))) |ET| 
0.12922106138965461230583287033369  |BT| (elaboration (elaboration (elaboration (attribution (Hi (, Yes I thin))(there (is great potential in every developing country for broadband )))(elaboration (Looking (at the example of Indi))(joint (where (I liv))(and (I have seen this happening )))))(elaboration (elaboration (The (key is to have a playe))(joint (who (offers attractive schemes for competitive rate))(and (soon all companies will be forced to follow ))))(elaboration (In (the long run everyone gets good business as a result of increased usage and thos))(who (dont follow get out of business )))))(Hope (this information helps Thanks , Manoj Article from Association for Progressive Communications www.ap))) |ET| 
-1.0604255825458088757784480549162  |BT| (elaboration (elaboration (attribution (elaboration (attribution))))) |ET| 
1.6503936249992623430671301321127  |BT| (joint (elaboration)) |ET| 
-1.0604255825458088757784480549162  |BT| (elaboration (elaboration (attribution))) |ET| 
2.1208511650916177515568961098325  |BT| (joint (elaboration (joint (elaboration)))) |ET| 
-1.0604255825458088757784480549162  |BT| (joint (elaboration)) |ET| 
-1.0604255825458088757784480549162  |BT| (elaboration (elaboration)(joint (elaboration))) |ET| 
2.1208511650916177515568961098325  |BT| (elaboration (elaboration (attribution (elaboration)))) |ET| 
-1.0604255825458088757784480549162  |BT| (elaboration (elaboration (elaboration (attribution (elaboration (elaboration))))(elaboration (attribution (elaboration))))(condition (attribution (elaboration))(elaboration))) |ET| 
2.0769334721118664077721405192278  |BT| (elaboration (elaboration)(joint (elaboration))) |ET| 
-1.0604255825458088757784480549162  |BT| (elaboration (joint (elaboration))) |ET| 
-1.0604255825458088757784480549162  |BT| (elaboration (joint (elaboration (condition (elaboration))(elaboration))(joint (elaboration)(joint (joint (joint)))))) |ET| 
0.99913090474324617318302443891298  |BT| (elaboration (elaboration (elaboration (attribution (elaboration (attribution (elaboration)(elaboration))))(elaboration)))(elaboration)) |ET| 
-1.0604255825458088757784480549162  |BT| (elaboration (elaboration)(contrast)) |ET| 
-1.0604255825458088757784480549162  |BT| (elaboration (elaboration (attribution (elaboration)(elaboration (elaboration)(contrast))))(contrast (attribution))) |ET| 
-1.0604255825458088757784480549162  |BT| (elaboration (elaboration (elaboration (elaboration (attribution (elaboration))))(contrast (attribution)))) |ET| 
2.1208511650916177515568961098325  |BT| (elaboration (joint (elaboration))) |ET| 
-1.0604255825458088757784480549162  |BT| (elaboration (joint (elaboration))) |ET| 
-1.0604255825458088757784480549162  |BT| (joint (elaboration)) |ET| 
-1.0604255825458088757784480549162  |BT| (topic-comment (elaboration (attribution)(elaboration (joint (elaboration (joint (elaboration))))))) |ET| 
0.060923744894125914095539542358893  |BT| (elaboration (joint (elaboration (contrast (attribution (givemestrengt)(If (you delete history and cookies your computer will run faster )))(But (remember you need cookies for browsing )))(joint (If (you press you start butto))(attribution (and (in the search box at the bottom and type tem))(it (will open up all items marked temp )))))(joint (then (you can brows through them ))(joint (it (is the same for cookies but be carefu))(and (what you are doing )))))(background (As (for givemeabreak it is herhis computer to d))(as (they lik)))) |ET| 
-1.0604255825458088757784480549162  |BT| (elaboration (elaboration (elaboration (elaboration))(contrast (attribution)))) |ET| 
-1.0604255825458088757784480549162  |BT| (elaboration (elaboration (elaboration (attribution (contrast))(elaboration (elaboration (elaboration (elaboration (elaboration)))))))(contrast)) |ET| 
1.1880243519241202587721772943041  |BT| (joint (elaboration (joint (joint)))(joint (elaboration))) |ET| 
-1.0604255825458088757784480549162  |BT| (elaboration (joint (joint))) |ET| 
1.8829007812168336855052075407002  |BT| (elaboration (elaboration (elaboration)(contrast (attribution)))) |ET| 
-1.0604255825458088757784480549162  |BT| (joint (elaboration (joint))(joint)) |ET| 
0.018122614563021999245506776787806  |BT| (elaboration (same-unit (elaboration (dont (crunch down down on very hard sweets ))(elaboration (they (can break your teet))(If (you are looking for the best teeth whitening ))))(elaboration (check (out this httpbesthometeethwhitening.inf))(Youll (get a white and bright smile just in 12 days and itll last for 6 months or longer ))))(And (its easy , fast and safe for your teeth ))) |ET| 
-1.0604255825458088757784480549162  |BT| (joint (elaboration (elaboration (elaboration)))) |ET| 
-1.0604255825458088757784480549162  |BT| (elaboration (elaboration (elaboration (elaboration (elaboration))(contrast (joint))))) |ET| 
-1.0604255825458088757784480549162  |BT| (elaboration (joint)) |ET| 
1.5443987001626009458732369239442  |BT| (joint (joint (joint))(elaboration)) |ET| 
2.1208511650916177515568961098325  |BT| (elaboration (joint)) |ET| 
-1.0604255825458088757784480549162  |BT| (elaboration (elaboration (attribution (elaboration (contrast)))(elaboration (joint (elaboration (elaboration)))(same-unit (elaboration))))(elaboration (attribution)(attribution))) |ET| 
-1.0604255825458088757784480549162  |BT| (elaboration (joint)) |ET| 
0.44644457075298926707063174035284  |BT| (topic-comment (elaboration (attribution)(elaboration (elaboration (elaboration))(condition)))) |ET| 
-1.0604255825458088757784480549162  |BT| (elaboration (elaboration (elaboration (attribution (contrast))(elaboration (elaboration (elaboration (elaboration (elaboration)))))))(contrast)) |ET| 
-1.0604255825458088757784480549162  |BT| (elaboration (elaboration (condition))) |ET| 
0.85964810827898552325621039926773  |BT| (elaboration (elaboration (contrast))(elaboration (joint))) |ET| 
-1.0604255825458088757784480549162  |BT| (elaboration (joint)) |ET| 
2.1208511650916177515568961098325  |BT| (joint) |ET| 
-1.0604255825458088757784480549162  |BT| (elaboration (elaboration (elaboration))(elaboration)) |ET| 
2.1208511650916177515568961098325  |BT| (same-unit (elaboration)) |ET| 
-1.0604255825458088757784480549162  |BT| (elaboration (elaboration (elaboration)(elaboration (background (joint (attribution)))(elaboration (contrast (enablement (condition)))(joint))))(elaboration)) |ET| 
0.8753409578750623865062152617611  |BT| (elaboration (condition (elaboration))(elaboration)) |ET| 
-1.0604255825458088757784480549162  |BT| (same-unit (elaboration)) |ET| 
0.013513965913878819152804666714474  |BT| (joint (elaboration (elaboration (3)(elaboration (condition (I (am not sur))(if (it makes a difference )))(I (use Windows ))))(elaboration (elaboration (1)(they (have several service 2 )))(ud (better renew it asap 3 ))))(joint (same-unit (elaboration (aspwindows (, phplinux , depands on the syste))(you (use Hi )))(I (would recommend Web Hosting Pad for your Web Hosting because its cheap and very reliable.With web hosting )))(comparison (youll (get free domain.Windows is more expensiv))(than (Linux.Better go for Linu))))) |ET| 
-1.0604255825458088757784480549162  |BT| (elaboration (joint (elaboration (condition (elaboration))(elaboration))(joint (elaboration)(joint (joint (joint)))))) |ET| 
-1.0604255825458088757784480549162  |BT| (elaboration (condition)(elaboration)) |ET| 
1.3763262639655577945774211912067  |BT| (elaboration (same-unit (elaboration))(elaboration (elaboration)(elaboration))) |ET| 
-1.0604255825458088757784480549162  |BT| (same-unit (elaboration)) |ET| 
2.1208511650916177515568961098325  |BT| (elaboration (condition)(elaboration)) |ET| 
-1.0604255825458088757784480549162  |BT| (elaboration (condition)(elaboration)) |ET| 
-1.0604255825458088757784480549162  |BT| (elaboration (elaboration (condition (elaboration))(elaboration (attribution (enablement (elaboration)))))(elaboration)) |ET| 
1.3626283352200248000229976241826  |BT| (joint (joint (elaboration (joint (elaboration)(joint (elaboration (elaboration))(joint))))(joint (joint)))) |ET| 
-1.0604255825458088757784480549162  |BT| (joint (elaboration (joint))(joint)) |ET| 
-1.0604255825458088757784480549162  |BT| (joint (elaboration)(joint)) |ET| 
-1.0604255825458088757784480549162  |BT| (elaboration (condition)(elaboration)) |ET| 
-1.0604255825458088757784480549162  |BT| (elaboration (elaboration (elaboration (condition (elaboration))(elaboration (contrast)))(elaboration (enablement (joint (attribution)))))) |ET| 
2.1208511650916177515568961098325  |BT| (elaboration (joint (elaboration)(joint))) |ET| 
-1.0604255825458088757784480549162  |BT| (elaboration (joint)) |ET| 
2.1208511650916177515568961098325  |BT| (elaboration (condition)(elaboration)) |ET| 
-1.0604255825458088757784480549162  |BT| (elaboration (joint (elaboration)(joint (joint (comparison))))) |ET| 
1.5119972384981705815221175726037  |BT| (elaboration (elaboration (elaboration (condition)(elaboration (condition)(enablement)))(elaboration (attribution)))) |ET| 
-1.0604255825458088757784480549162  |BT| (elaboration (elaboration (attribution))) |ET| 
2.1208511650916177515568961098325  |BT| (elaboration (joint)) |ET| 
-1.0604255825458088757784480549162  |BT| (elaboration (condition (elaboration)(elaboration))(elaboration (elaboration))) |ET| 
-1.0604255825458088757784480549162  |BT| (elaboration (joint)) |ET| 
2.1208511650916177515568961098325  |BT| (elaboration (elaboration (attribution))) |ET| 
-1.0604255825458088757784480549162  |BT| (elaboration (elaboration (attribution))) |ET| 
-1.0604255825458088757784480549162  |BT| (elaboration (condition)(enablement)) |ET| 
1.2711265185902194119194064114708  |BT| (elaboration (enablement (joint (joint)))) |ET| 
-1.0604255825458088757784480549162  |BT| (elaboration (joint (joint))) |ET| 
-1.0604255825458088757784480549162  |BT| (elaboration (joint (elaboration (condition (elaboration))(elaboration))(joint (elaboration)(joint (joint (joint)))))) |ET| 
-1.0604255825458088757784480549162  |BT| (joint (joint (joint (joint)))) |ET| 
-1.0604255825458088757784480549162  |BT| (elaboration (enablement)) |ET| 
1.3760148815263684163312518649036  |BT| (elaboration (condition)(enablement)) |ET| 
-1.0604255825458088757784480549162  |BT| (elaboration (condition)(enablement)) |ET| 
-1.0604255825458088757784480549162  |BT| (elaboration (elaboration)(elaboration (joint (joint (elaboration))(elaboration)))) |ET| 
1.1494608777905515051287466121721  |BT| (elaboration (enablement)) |ET| 
-1.0604255825458088757784480549162  |BT| (elaboration (enablement)) |ET| 
-1.0604255825458088757784480549162  |BT| (elaboration (elaboration (elaboration (elaboration (enablement))))) |ET| 
0.0015774642294515556217859852949914  |BT| (joint (temporal (elaboration (attribution))(same-unit (condition (same-unit (elaboration)(attribution (elaboration))))))) |ET| 
-1.0604255825458088757784480549162  |BT| (elaboration (elaboration)(elaboration (joint (joint (elaboration))(elaboration)))) |ET| 
-1.0604255825458088757784480549162  |BT| (elaboration (same-unit (elaboration))(elaboration (joint (elaboration)))) |ET| 
0.03578525503779869665343937867874  |BT| (elaboration (elaboration (Moviessoftwarevideo (games ))(Quite (simply , illegal downloaders are putting the future of each of these industries at risk for the reason already stated )))(elaboration (You (have to sell your existing produc))(elaboration (to (get the mone))(to (create the next produc))))) |ET| 
-1.0604255825458088757784480549162  |BT| (elaboration (enablement)) |ET| 
2.1208511650916177515568961098325  |BT| (elaboration (joint (elaboration))) |ET| 
-1.0604255825458088757784480549162  |BT| (elaboration (enablement (elaboration))) |ET| 
0.61979359503155118105155452212784  |BT| (elaboration (joint (elaboration (attribution)))) |ET| 
-1.0604255825458088757784480549162  |BT| (elaboration (elaboration (elaboration (joint (elaboration))))) |ET| 
1.755520089592492283259161922615  |BT| (elaboration (enablement)) |ET| 
-1.0604255825458088757784480549162  |BT| (elaboration (joint (elaboration (elaboration (joint (elaboration (attribution (elaboration (joint)))))))(joint (condition)))) |ET| 
0.22604354965681894285012276668567  |BT| (elaboration (enablement (elaboration (enablement (same-unit (background)))))) |ET| 
-1.0604255825458088757784480549162  |BT| (elaboration (enablement (joint)(elaboration))) |ET| 
0.024841475952261937720777495997027  |BT| (elaboration (elaboration (elaboration (elaboration (elaboration (What (is the best proxy websit))(elaboration (I (need a websit))(joint (that (will let me log into MySpac))(and (send messages )))))(elaboration (All (of the one))(that (Ive found will not send messages ))))(elaboration (elaboration (elaboration (Preferable (one with the least amount of popup ))(elaboration (The (website link can not have the name MySpace , FaceBook , Or Gaia in it ))(joint (If (It does it wont work ))(And (PLEASE free )))))(Im (poor )))(elaboration ()(elaboration (Its (really important ))(condition (If (you wan na know the reaso))(send (me an email )))))))(D (I like to share happy stories )))(joint (Thanks)(use (1 of the below whitehero.info blackhero.info cheesebus.info cheesecar.info ihatemonday.info proxies get blocked very fas)))) |ET| 
-1.0604255825458088757784480549162  |BT| (elaboration (elaboration)(elaboration (joint (joint (elaboration))(elaboration)))) |ET| 
-1.0604255825458088757784480549162  |BT| (elaboration (joint)) |ET| 
-1.0604255825458088757784480549162  |BT| (elaboration (elaboration (elaboration (enablement (joint (elaboration)))))) |ET| 
0.33980949651114861209677542319696  |BT| (elaboration (elaboration (condition (elaboration)(elaboration))(same-unit (elaboration)))(background)) |ET| 
-1.0604255825458088757784480549162  |BT| (same-unit (elaboration)) |ET| 
-1.0604255825458088757784480549162  |BT| (enablement (same-unit (elaboration))) |ET| 
1.1186585565215532156457811652217  |BT| (elaboration (elaboration (joint (joint))(elaboration))(elaboration)) |ET| 
-1.0604255825458088757784480549162  |BT| (elaboration (elaboration (elaboration (joint (elaboration))))) |ET| 
2.1208511650916177515568961098325  |BT| (same-unit (elaboration)) |ET| 
-1.0604255825458088757784480549162  |BT| (elaboration (elaboration (elaboration (joint (elaboration (elaboration (elaboration (elaboration)))))))) |ET| 
-1.0604255825458088757784480549162  |BT| (same-unit (elaboration)) |ET| 
-1.0604255825458088757784480549162  |BT| (same-unit (elaboration (attribution (same-unit (elaboration))))) |ET| 
0.27520718632091939470640795661893  |BT| (elaboration (elaboration (elaboration (elaboration (enablement (attribution)))))) |ET| 
-1.0604255825458088757784480549162  |BT| (elaboration (joint (I (have a Acer Vista Laptop ))(attribution (Is (the language on yoour computer set to english united states I believ))(elaboration (thats (the hotke))(to (change your keyboard language )))))(elaboration (Is (there a little icon in your task ba))(that (says E)))) |ET| 
-1.0604255825458088757784480549162  |BT| (attribution (background (attribution)(joint (elaboration)))) |ET| 
-1.0604255825458088757784480549162  |BT| (elaboration (elaboration (elaboration (elaboration (joint (elaboration))))(elaboration))) |ET| 
-1.0604255825458088757784480549162  |BT| (elaboration (elaboration (elaboration (joint (elaboration (elaboration (elaboration (elaboration)))))))) |ET| 
2.1208511650916177515568961098325  |BT| (same-unit (elaboration)) |ET| 
-1.0604255825458088757784480549162  |BT| (elaboration (elaboration)(background)) |ET| 
0.17049308896100096033521253957588  |BT| (elaboration (attribution)(elaboration (attribution (same-unit (elaboration))))) |ET| 
0.51430428146214879348008253145963  |BT| (elaboration (elaboration (contrast (elaboration)(elaboration))(elaboration (elaboration (elaboration))))) |ET| 
1.3450293051901576202311616725638  |BT| (elaboration (elaboration (elaboration (elaboration (same-unit (joint))(attribution))))(background (joint))) |ET| 
-1.0604255825458088757784480549162  |BT| (same-unit (elaboration)) |ET| 
-1.0604255825458088757784480549162  |BT| (same-unit (elaboration (attribution (same-unit (elaboration))))) |ET| 
-1.0604255825458088757784480549162  |BT| (elaboration (attribution (same-unit (elaboration)))) |ET| 
2.1208511650916177515568961098325  |BT| (elaboration (elaboration (elaboration (elaboration (elaboration (joint (elaboration))))))(attribution (enablement (elaboration)))) |ET| 
-1.0604255825458088757784480549162  |BT| (elaboration (elaboration (elaboration (joint (elaboration (elaboration (elaboration (elaboration)))))))) |ET| 
-1.0604255825458088757784480549162  |BT| (elaboration (elaboration (elaboration))) |ET| 
0.30164364681656841149504089116817  |BT| (elaboration (elaboration (elaboration (elaboration (same-unit (elaboration)(joint (attribution)))))(elaboration (elaboration)))(joint)) |ET| 
-1.0604255825458088757784480549162  |BT| (elaboration (attribution (same-unit (elaboration)))) |ET| 
-1.0604255825458088757784480549162  |BT| (same-unit (elaboration)) |ET| 
0.026370178721742059541055525073716  |BT| (elaboration (joint (websites (like ... ... ... ))(joint (faceinhole.com (any ))(joint (like (this You can edit your photos online ))(joint (since (there are so many websites for photo enhacment ))(and (they are free ))))))(elaboration (The (best one is 1 ))(elaboration (Funnywow (- http://www.funnywow.com 2 ))(Top (20 websites for photo editing - http://www.squidoo.com/photofunia-style Hope it can help ))))) |ET| 
-1.0604255825458088757784480549162  |BT| (joint (elaboration (elaboration (elaboration)))) |ET| 
-1.0604255825458088757784480549162  |BT| (elaboration (elaboration (elaboration (elaboration (joint (elaboration)))))) |ET| 
2.1071876178356294673221782431938  |BT| (attribution (same-unit (elaboration))) |ET| 
-1.0604255825458088757784480549162  |BT| (elaboration (attribution (same-unit (elaboration)))) |ET| 
-1.0604255825458088757784480549162  |BT| (attribution (same-unit (elaboration))) |ET| 
0.018379450407669861711212888621958  |BT| (elaboration (elaboration (elaboration (elaboration (joint (condition (attribution (joint)))(background (elaboration)))(joint (elaboration)(manner-means)))(elaboration)))) |ET| 
-1.0604255825458088757784480549162  |BT| (elaboration (elaboration (elaboration (elaboration (joint (elaboration)))))) |ET| 
0.025859726504517829837048736862926  |BT| (background (background (joint (same-unit (attribution (explanation (attribution (attribution))(attribution (background))))))(contrast))(attribution (same-unit (background))(joint (elaboration)))) |ET| 
-1.0604255825458088757784480549162  |BT| (elaboration (elaboration (elaboration (elaboration (elaboration))))) |ET| 
-1.0604255825458088757784480549162  |BT| (same-unit (elaboration (attribution (same-unit (elaboration))))) |ET| 
-1.0604255825458088757784480549162  |BT| (explanation (elaboration (attribution (elaboration))(elaboration (attribution (same-unit (elaboration)))))) |ET| 
0.27879139550815901227309723253711  |BT| (explanation (elaboration (attribution (elaboration))(elaboration (attribution (same-unit (elaboration)))))) |ET| 
-1.0604255825458088757784480549162  |BT| (elaboration (elaboration (elaboration (elaboration (joint (elaboration)))))) |ET| 
-1.0604255825458088757784480549162  |BT| (elaboration (elaboration (elaboration (elaboration (joint))))(attribution)) |ET| 
2.1208511650916177515568961098325  |BT| (same-unit (elaboration)) |ET| 
2.1208511650916177515568961098325  |BT| (explanation (elaboration (attribution (elaboration))(elaboration (attribution (same-unit (elaboration)))))) |ET| 
-1.0604255825458088757784480549162  |BT| (elaboration (elaboration (elaboration (elaboration (joint (elaboration))))(elaboration))) |ET| 
-1.0604255825458088757784480549162  |BT| (joint (elaboration (elaboration (attribution)))) |ET| 
0.72219794743719867291531500086421  |BT| (attribution (elaboration)) |ET| 
-1.0604255825458088757784480549162  |BT| (elaboration (condition)(enablement)) |ET| 
-1.0604255825458088757784480549162  |BT| (elaboration (joint (attribution (elaboration)))(elaboration)) |ET| 
-1.0604255825458088757784480549162  |BT| (attribution (elaboration)) |ET| 
1.6625061898210606869952243869193  |BT| (elaboration (elaboration (elaboration (elaboration (joint (elaboration))))(elaboration))) |ET| 
2.0775459984104869270993276586523  |BT| (elaboration (condition)(enablement)) |ET| 
-1.0604255825458088757784480549162  |BT| (elaboration (elaboration (joint))) |ET| 
-1.0604255825458088757784480549162  |BT| (attribution (same-unit (elaboration))) |ET| 
-1.0604255825458088757784480549162  |BT| (elaboration (same-unit (elaboration))(elaboration (elaboration)(condition))) |ET| 
0.13904592185624314870651119235845  |BT| (elaboration (elaboration (contrast (joint (attribution)))(same-unit (joint)))) |ET| 
-1.0604255825458088757784480549162  |BT| (elaboration (elaboration (joint))) |ET| 
-1.0604255825458088757784480549162  |BT| (elaboration (elaboration (elaboration (elaboration)))(elaboration (elaboration (joint (attribution (elaboration)))))) |ET| 
-1.0604255825458088757784480549162  |BT| (elaboration (background)(elaboration (attribution (elaboration (attribution (elaboration (joint (elaboration)))))))) |ET| 
-1.0604255825458088757784480549162  |BT| (elaboration (elaboration (elaboration)(elaboration (attribution (elaboration))(elaboration (condition))))(attribution)) |ET| 
2.1208511650916177515568961098325  |BT| (elaboration (same-unit (elaboration (elaboration)))(elaboration)) |ET| 
-1.0604255825458088757784480549162  |BT| (same-unit (elaboration (elaboration))) |ET| 
0.80418654353924656774665891134646  |BT| (elaboration (elaboration (elaboration)(elaboration (attribution (elaboration))(elaboration (condition))))(attribution)) |ET| 
-1.0604255825458088757784480549162  |BT| (elaboration (same-unit (elaboration))(elaboration (joint (elaboration)))) |ET| 
-1.0604255825458088757784480549162  |BT| (elaboration (same-unit (elaboration))(elaboration (cause))) |ET| 
2.0097280326631961067107567942003  |BT| (elaboration (elaboration (joint)(elaboration (condition (joint (elaboration (elaboration (attribution (joint (elaboration (elaboration))))))))(joint)))) |ET| 
-1.0604255825458088757784480549162  |BT| (elaboration (elaboration (elaboration))) |ET| 
-1.0604255825458088757784480549162  |BT| (elaboration (elaboration (elaboration (attribution (joint))))) |ET| 
0.78919336042958265764468706038315  |BT| (elaboration (elaboration (same-unit (elaboration))(elaboration (joint)))(cause)) |ET| 
-1.0604255825458088757784480549162  |BT| (attribution (same-unit (elaboration))) |ET| 
-1.0604255825458088757784480549162  |BT| (same-unit (elaboration (joint (same-unit (elaboration))))) |ET| 
2.1208511650916177515568961098325  |BT| (elaboration (elaboration (elaboration))) |ET| 
-1.0604255825458088757784480549162  |BT| (elaboration (elaboration (elaboration))) |ET| 
2.1171941694230982378144290123601  |BT| (attribution (same-unit (elaboration))) |ET| 
-1.0604255825458088757784480549162  |BT| (elaboration (elaboration)) |ET| 
-1.0604255825458088757784480549162  |BT| (attribution (same-unit (elaboration))) |ET| 
2.1208511650916177515568961098325  |BT| (elaboration (elaboration (elaboration))) |ET| 
-1.0604255825458088757784480549162  |BT| (attribution (attribution (same-unit (elaboration)))(condition)) |ET| 
-1.0604255825458088757784480549162  |BT| (elaboration (elaboration (elaboration (elaboration (elaboration))))) |ET| 
-1.0604255825458088757784480549162  |BT| (elaboration (elaboration (elaboration (elaboration)))) |ET| 
1.0942183536900742524267116095871  |BT| (attribution (attribution (same-unit (elaboration)))(condition)) |ET| 
-1.0604255825458088757784480549162  |BT| (attribution (same-unit (elaboration))) |ET| 
1.4194375451760912199006270384416  |BT| (elaboration (elaboration (elaboration (elaboration (background)(elaboration (joint)))))) |ET| 
2.1208511650916177515568961098325  |BT| (attribution (same-unit (elaboration))) |ET| 
-1.0604255825458088757784480549162  |BT| (elaboration (elaboration (elaboration (contrast))(elaboration (condition (joint))(elaboration (condition (joint))(joint))))) |ET| 
2.1060231491641792089808404853102  |BT| (elaboration (elaboration)(same-unit (elaboration (joint (same-unit (elaboration)))))) |ET| 
-1.0604255825458088757784480549162  |BT| (attribution (attribution (same-unit (elaboration)))(condition)) |ET| 
-1.0604255825458088757784480549162  |BT| (elaboration (elaboration (joint))(same-unit (elaboration))) |ET| 
0.020150313947235209965924696007278  |BT| (elaboration (elaboration (elaboration (What (size cache should I use for Internet Explorer Windows XP Professional ))(elaboration (Service (Pack 3 ))(80 (GB hard disk ))))(manner-means (Intel (Pentium III , Clock Speed 500 MHz 512 MB of RAM with no room for mor))(without (replacing the motherboard ))))(Microsoft (Internet Explorer 6.0 at the momen))) |ET| 
-1.0604255825458088757784480549162  |BT| (elaboration (elaboration)) |ET| 
-1.0604255825458088757784480549162  |BT| (elaboration (elaboration (elaboration (elaboration (comparison)(elaboration (elaboration (elaboration))(attribution))))(elaboration (elaboration)(cause)))) |ET| 
-1.0604255825458088757784480549162  |BT| (same-unit (elaboration (joint (same-unit (elaboration))))) |ET| 
2.1208511650916177515568961098325  |BT| (elaboration (elaboration (elaboration))) |ET| 
-1.0604255825458088757784480549162  |BT| (attribution (same-unit (elaboration))) |ET| 
-1.0604255825458088757784480549162  |BT| (joint (same-unit (elaboration))) |ET| 
2.1208511650916177515568961098325  |BT| (background) |ET| 
-1.0604255825458088757784480549162  |BT| (elaboration (elaboration)) |ET| 
-1.0604255825458088757784480549162  |BT| (elaboration (elaboration (elaboration (elaboration)))) |ET| 
-1.0604255825458088757784480549162  |BT| (elaboration (elaboration (elaboration)(elaboration (elaboration (elaboration))))) |ET| 
2.1208511650916177515568961098325  |BT| (joint (same-unit (elaboration))) |ET| 
-1.0604255825458088757784480549162  |BT| (elaboration (joint (same-unit (elaboration)))(attribution)) |ET| 
0.068914357617107069309270173107507  |BT| (elaboration (elaboration (joint))(elaboration (elaboration)(elaboration))) |ET| 
-1.0604255825458088757784480549162  |BT| (elaboration (elaboration (elaboration (elaboration)))) |ET| 
-1.0604255825458088757784480549162  |BT| (elaboration (elaboration (elaboration))(condition (elaboration (elaboration)))) |ET| 
2.1208511650916177515568961098325  |BT| (elaboration (joint)(attribution)) |ET| 
-1.0604255825458088757784480549162  |BT| (elaboration (joint (elaboration))(attribution)) |ET| 
-1.0604255825458088757784480549162  |BT| (elaboration (joint (elaboration))(attribution)) |ET| 
0.048608032801876352446690532360662  |BT| (elaboration (background (As (the hoodie is 19.99 ))(elaboration (woul)(elaboration (that (be around 13 1))(which (is about 6 pounds )))))(elaboration (joint (elaboration (You (could go to the pag))(where (you have to enter your credit card details just put random info on the Billing Address page )))(elaboration (and (it will show you the total amoun))(that (will be charged ))))(including (shipping cost)))) |ET| 
-1.0604255825458088757784480549162  |BT| (elaboration (joint (joint (contrast (elaboration))))(attribution)) |ET| 
2.1208511650916177515568961098325  |BT| (elaboration (elaboration (elaboration))(condition (elaboration (elaboration)))) |ET| 
-1.0604255825458088757784480549162  |BT| (elaboration (elaboration (elaboration))) |ET| 
2.1208511650916177515568961098325  |BT| (joint (joint (contrast (elaboration)))) |ET| 
-1.0604255825458088757784480549162  |BT| (textual-organization (elaboration (elaboration (joint (contrast (attribution)(elaboration)))))) |ET| 
-1.0604255825458088757784480549162  |BT| (elaboration (background)(elaboration (attribution (elaboration (attribution (elaboration (joint (elaboration)))))))) |ET| 
0.0016976889123989646890322546823882  |BT| (elaboration (Show (off your outfits on your blog or other sites ))(elaboration (httpwww.formspring.mexXxJackieKayxXx (i only use Fubar now.there is almost 4 million members ))(not (as many as facebook.but theres more to do there and its fre)))) |ET| 
-1.0604255825458088757784480549162  |BT| (joint (condition (attribution))) |ET| 
2.1208511650916177515568961098325  |BT| (elaboration (elaboration (joint))) |ET| 
-1.0604255825458088757784480549162  |BT| (elaboration (elaboration (joint))) |ET| 
0.60951596201659152818308484711451  |BT| (same-unit (elaboration (attribution (elaboration (attribution (elaboration)))))) |ET| 
-1.0604255825458088757784480549162  |BT| (elaboration (elaboration (elaboration (elaboration (joint))))(attribution)) |ET| 
2.1208511650916177515568961098325  |BT| (elaboration (attribution (elaboration (attribution)))) |ET| 
-1.0604255825458088757784480549162  |BT| (attribution (elaboration)) |ET| 
-1.0604255825458088757784480549162  |BT| (elaboration (attribution)) |ET| 
2.1208511650916177515568961098325  |BT| (joint (condition (attribution))) |ET| 
-1.0604255825458088757784480549162  |BT| (joint (condition (attribution))) |ET| 
-1.0604255825458088757784480549162  |BT| (joint (condition)) |ET| 
-1.0604255825458088757784480549162  |BT| (attribution (elaboration)) |ET| 
-1.0604255825458088757784480549162  |BT| (joint (joint (attribution (elaboration (attribution (elaboration)))))(joint)) |ET| 
0.17787843083961085710598126752302  |BT| (joint (elaboration (cause))(joint)) |ET| 
1.5949708460186202696462487438112  |BT| (attribution (elaboration)) |ET| 
-1.0604255825458088757784480549162  |BT| (joint (elaboration)(joint)) |ET| 
-1.0604255825458088757784480549162  |BT| (joint (joint (elaboration)(joint))) |ET| 
-1.0604255825458088757784480549162  |BT| (elaboration (elaboration (elaboration))(condition (elaboration (elaboration)))) |ET| 
-1.0604255825458088757784480549162  |BT| (elaboration (elaboration (same-unit (attribution (elaboration))(attribution (elaboration))))) |ET| 
1.5536780722396834608645121988957  |BT| (joint (elaboration)(joint (joint))) |ET| 
-1.0604255825458088757784480549162  |BT| (joint (elaboration)(joint (joint))) |ET| 
2.1208511650916177515568961098325  |BT| (elaboration (elaboration (attribution))) |ET| 
-1.0604255825458088757784480549162  |BT| (elaboration (elaboration (elaboration))) |ET| 
-1.0604255825458088757784480549162  |BT| (elaboration (attribution (elaboration (elaboration (elaboration))))) |ET| 
2.1208511650916177515568961098325  |BT| (joint (joint (elaboration)(joint (joint)(joint)))) |ET| 
-1.0604255825458088757784480549162  |BT| (joint (elaboration)(joint (joint))) |ET| 
-1.0604255825458088757784480549162  |BT| (joint (joint (elaboration)(joint))) |ET| 
-1.0604255825458088757784480549162  |BT| (explanation (joint (joint (elaboration)(joint (joint (elaboration (enablement))(joint (joint (explanation (joint))))))))) |ET| 
8.8817841970012523233890533447266e-16  |BT| (elaboration (elaboration (elaboration (elaboration (same-unit))))) |ET| 
1.9859000852238217760259431088343  |BT| (joint (elaboration)(joint (joint))) |ET| 
0.56754962746384052252324181608856  |BT| (joint (joint (joint (joint (elaboration)(joint (joint)))))) |ET| 
-1.0604255825458088757784480549162  |BT| (elaboration (elaboration (elaboration (elaboration)))) |ET| 
-1.0604255825458088757784480549162  |BT| (elaboration (elaboration (elaboration (elaboration (same-unit))))) |ET| 
2.0408807139295372934384431573562  |BT| (joint (attribution (joint (joint (attribution (elaboration)))))) |ET| 
-1.0604255825458088757784480549162  |BT| (elaboration (joint (attribution (elaboration)))(elaboration)) |ET| 
-1.0604255825458088757784480549162  |BT| (joint (attribution (joint (joint (attribution (elaboration)))))) |ET| 
0.0047363459851944567091663884639274  |BT| (joint (joint (Worst (case , download FF on another computer , copy to flash drive , install to computer from there maybe retain a copy of the installer just in case you have to install it again check your avialable space , defragmentor page will tell you exactly how much space you have ))(and (addremove programs will let you make more )))(and (do the disk clean up If ur using a laptop check the wireless switch , if ur using windows such as vista , u should have a bar on top of ur desktop , make sure one of the lights is switched on deppending what conncetion u hav))) |ET| 
0.69744438187216428737258411274524  |BT| (elaboration (joint (attribution (elaboration)))(elaboration (condition)(elaboration (joint)))) |ET| 
2.1208511650916177515568961098325  |BT| (joint (attribution (elaboration))) |ET| 
-1.0604255825458088757784480549162  |BT| (elaboration (elaboration (elaboration (elaboration)))) |ET| 
-1.0604255825458088757784480549162  |BT| (elaboration (elaboration (elaboration (elaboration))(condition (joint)))(elaboration)) |ET| 
0.89311309576149988664894863177324  |BT| (joint (elaboration (elaboration (joint (attribution (elaboration)))(elaboration (same-unit (elaboration)(explanation (elaboration)))(elaboration (joint (elaboration)))))(attribution (elaboration)))(joint (background (explanation)(elaboration)))) |ET| 
-1.0604255825458088757784480549162  |BT| (joint (joint (attribution (elaboration (attribution (elaboration)))))(joint)) |ET| 
-1.0604255825458088757784480549162  |BT| (joint (elaboration (joint (attribution (elaboration)))(joint))(joint (attribution (elaboration)))) |ET| 
0.75341931462389599705176124189165  |BT| (elaboration (elaboration (elaboration (elaboration))(elaboration (elaboration (elaboration (elaboration)))))(elaboration)) |ET| 
-1.0604255825458088757784480549162  |BT| (elaboration (elaboration (elaboration (elaboration (joint (elaboration))))(elaboration))) |ET| 
-1.0604255825458088757784480549162  |BT| (elaboration (elaboration (elaboration)(elaboration (elaboration (elaboration))))) |ET| 
-1.0604255825458088757784480549162  |BT| (elaboration (elaboration (elaboration (elaboration))(elaboration (elaboration)))(elaboration (condition)(same-unit))) |ET| 
1.5721678235503113718607437476749  |BT| (elaboration (elaboration (attribution (elaboration)))(condition)) |ET| 
-1.0604255825458088757784480549162  |BT| (elaboration (attribution)) |ET| 
-1.0604255825458088757784480549162  |BT| (attribution (elaboration (attribution (contrast)))) |ET| 
-1.0604255825458088757784480549162  |BT| (elaboration (elaboration (elaboration (elaboration))(elaboration (elaboration)))(elaboration (condition)(same-unit))) |ET| 
-1.0604255825458088757784480549162  |BT| (same-unit (elaboration (elaboration (elaboration (elaboration)))(elaboration (elaboration)))) |ET| 
2.1064940288214470953676027420443  |BT| (joint (elaboration (joint (attribution (elaboration (attribution (contrast))))))(joint)) |ET| 
0.004881743808118650142235939171087  |BT| (elaboration (elaboration (elaboration (how (to get picture off the interne))(joint (i (have a ma))(joint (and (i tried dragging the pictur))(and (that didnt work )))))(joint (I (tried copying the pictur))(and (that didnt work ))))(elaboration (I (dont have a right click on my mous))(so (that doesnt wor)))) |ET| 
-1.0604255825458088757784480549162  |BT| (elaboration (joint (elaboration (joint (elaboration (background))(joint (joint)(attribution))))(joint (background)))(elaboration)) |ET| 
0.46104078648671209528231429430889  |BT| (elaboration (elaboration (elaboration (attribution (enablement (joint (enablement (joint)))))))) |ET| 
-1.0604255825458088757784480549162  |BT| (attribution (elaboration (attribution (contrast)))) |ET| 
-1.0604255825458088757784480549162  |BT| (contrast (elaboration (attribution (elaboration (attribution (elaboration))))(joint))(attribution (joint (joint)))) |ET| 
0.03912887103649678732786298951396  |BT| (elaboration (joint (elaboration)(joint))(elaboration (elaboration (elaboration)(elaboration))(attribution))) |ET| 
-1.0604255825458088757784480549162  |BT| (joint (elaboration)(joint)) |ET| 
2.1208511650916177515568961098325  |BT| (elaboration (attribution (elaboration (attribution)))) |ET| 
-1.0604255825458088757784480549162  |BT| (elaboration (elaboration (elaboration)(elaboration))(attribution (attribution))) |ET| 
2.0657441338115201112657359772129  |BT| (contrast (elaboration (attribution (elaboration (attribution (elaboration))))(joint))(attribution (joint (joint)))) |ET| 
2.1208511650916177515568961098325  |BT| (joint (elaboration)) |ET| 
-1.0604255825458088757784480549162  |BT| (elaboration (elaboration)(elaboration (attribution (elaboration)))) |ET| 
-1.0604255825458088757784480549162  |BT| (elaboration (joint (background)(joint))(condition)) |ET| 
-1.0604255825458088757784480549162  |BT| (joint (elaboration)(joint (joint))) |ET| 
-1.0604255825458088757784480549162  |BT| (contrast (elaboration (attribution (elaboration (attribution (elaboration))))(joint))(attribution (joint (joint)))) |ET| 
0.57823025878356482110120850848034  |BT| (elaboration (elaboration (elaboration))(elaboration)) |ET| 
-1.0604255825458088757784480549162  |BT| (elaboration (joint (elaboration)(joint (joint)))(elaboration)) |ET| 
0.047468050529418936989145549887326  |BT| (elaboration (elaboration (elaboration (elaboration (elaboration)))(joint (background)(joint (same-unit (elaboration))(elaboration))))(attribution)) |ET| 
-1.0604255825458088757784480549162  |BT| (elaboration (elaboration (elaboration)(elaboration))(attribution (attribution))) |ET| 
-1.0604255825458088757784480549162  |BT| (elaboration (elaboration (elaboration))(elaboration (elaboration (elaboration))(attribution))) |ET| 
0.13680388168402779491827914171154  |BT| (joint (elaboration (attribution (elaboration)))(joint (joint))) |ET| 
-1.0604255825458088757784480549162  |BT| (elaboration (joint (elaboration (attribution (elaboration))))) |ET| 
-1.0604255825458088757784480549162  |BT| (joint (elaboration (attribution (elaboration (cause (condition (elaboration (attribution (joint (elaboration)))))))))) |ET| 
0.17045530686114385154894534935011  |BT| (joint (elaboration (elaboration (condition (Unless (you have two paypal accounts ))(attribution (I (would thin))(that (someone has jacked your card number ))))(joint (You (should call customer service on paypal ))(same-unit (an)(same-unit (elaboration (if (it is an accoun))(you (dont know )))(have (them unassign it ))))))(Then (check your bank for unknown charges )))(same-unit (elaboration (joint (is (there a phone number , I would call them u))(and (find outyou will just get a run around doing it over the internet.what gets me is asigned to a different account )))(meaning (what )))(like (someone else signed in good luc)))) |ET| 
-1.0604255825458088757784480549162  |BT| (elaboration (elaboration (elaboration))(elaboration (elaboration (elaboration))(attribution))) |ET| 
-1.0604255825458088757784480549162  |BT| (elaboration (elaboration)(attribution)) |ET| 
-1.0604255825458088757784480549162  |BT| (attribution (background (attribution)(joint (elaboration)))) |ET| 
0.021266290055037551098848780384287  |BT| (elaboration (elaboration (joint))) |ET| 
0.054511913385433347079001009660715  |BT| (elaboration (elaboration (There (are updates from time to tim))(elaboration (created (by a team of peopl))(who (are dedicated to keeping Firefox safe and trustworthy ))))(elaboration (firefox (Internet explore))(The (major contenders are Internet Explorer , Mozilla Firefox , Google Chrome , and Opera for the Deskto)))) |ET| 
-1.0604255825458088757784480549162  |BT| (elaboration (elaboration (elaboration)(elaboration (elaboration (elaboration))))) |ET| 
-1.0604255825458088757784480549162  |BT| (elaboration (elaboration (elaboration (elaboration)(elaboration)))) |ET| 
2.1208511650916177515568961098325  |BT| (elaboration (elaboration (elaboration))) |ET| 
-1.0604255825458088757784480549162  |BT| (elaboration (elaboration (joint (attribution)))(joint)) |ET| 
0.0018141463537977298159376005060039  |BT| (elaboration (Where (can I get a picture of Lysander from a Midsummer nights dream asleep or sleeping Where can I get a picture of Lysander from a Midsummer nights dream asleep or sleeping Like ))(on (the interne))) |ET| 
1.7761372129911221495746076470823  |BT| (elaboration (joint (elaboration (attribution)))) |ET| 
-1.0604255825458088757784480549162  |BT| (elaboration (elaboration (elaboration (background))(elaboration (elaboration (elaboration (elaboration)))))) |ET| 
2.1208511650916177515568961098325  |BT| (elaboration (elaboration (joint (attribution)))(joint (elaboration))) |ET| 
-1.0604255825458088757784480549162  |BT| (joint (elaboration)) |ET| 
-1.0604255825458088757784480549162  |BT| (elaboration (joint)(joint (elaboration))) |ET| 
2.0980548054156695769734142231755  |BT| (elaboration (elaboration (elaboration (elaboration (elaboration (elaboration)))(attribution))(elaboration))(elaboration)) |ET| 
-1.0604255825458088757784480549162  |BT| (elaboration (elaboration (elaboration (elaboration)(elaboration)))) |ET| 
-1.0604255825458088757784480549162  |BT| (elaboration (elaboration (elaboration (elaboration (elaboration)))(attribution))(elaboration)) |ET| 
-1.0604255825458088757784480549162  |BT| (elaboration (elaboration (elaboration))(elaboration)) |ET| 
-1.0604255825458088757784480549162  |BT| (elaboration (elaboration (elaboration)(elaboration))(attribution (attribution))) |ET| 
2.1208511650916177515568961098325  |BT| (joint (elaboration)) |ET| 
-1.0604255825458088757784480549162  |BT| (elaboration (elaboration (attribution (elaboration (attribution (attribution)))))(elaboration)) |ET| 
1.6945123516929760931759574305033  |BT| (elaboration (elaboration (elaboration)(background (attribution)(joint (elaboration))))) |ET| 
-1.0604255825458088757784480549162  |BT| (joint (elaboration)) |ET| 
1.2495865569681066098439714551205  |BT| (elaboration (elaboration (elaboration)(elaboration))(attribution (attribution))) |ET| 
-1.0604255825458088757784480549162  |BT| (elaboration (elaboration (joint (elaboration (joint (elaboration))))(joint (elaboration)(joint (elaboration (elaboration)))))) |ET| 
0.032127829518018402588097615080187  |BT| (elaboration (elaboration (WordPress (can be installed on any of the above except Smack Jeeve))(temporal (which (has its own syste))(elaboration (and (then you can use the ComicPress theme recommend 2.5 as its a lot easier to customize than the later versions , think of 2.5 as Windows XP and the ComicPress versions afterward as Vist))(elaboration (which (has a new 3.0 versio))(coming (out in the future or the WebComic theme ))))))(elaboration (All (of which are free and WordPress can be installed for you by the three hosting companie))(I (mentione)))) |ET| 
-1.0604255825458088757784480549162  |BT| (elaboration (elaboration (elaboration (elaboration)(elaboration))(elaboration))(background (elaboration))) |ET| 
2.1208511650916177515568961098325  |BT| (joint (elaboration (joint (elaboration (enablement))(joint))(joint))(joint (elaboration))) |ET| 
-1.0604255825458088757784480549162  |BT| (joint (elaboration)(joint (elaboration))) |ET| 
2.1208511650916177515568961098325  |BT| (elaboration (elaboration (joint))(elaboration (attribution (elaboration (elaboration (joint)))))) |ET| 
-1.0604255825458088757784480549162  |BT| (elaboration (elaboration (elaboration (elaboration (joint))))(elaboration (attribution))) |ET| 
0.0043218725557453430141663375252392  |BT| (elaboration (you (should tell so ))(elaboration (elaboration (attribution (its (unlikely an))(contrast (if (it actually said your name then i would be more worrie))(attribution (but (if it just sai))(elaboration (it (knew your name more unlikely but either wa))(you (should tell your guardian ))))))(They (dont know that )))(dont (sweat it )))) |ET| 
0.19214757291171835618115437682718  |BT| (elaboration (contrast (elaboration (joint))(elaboration (elaboration (elaboration)(elaboration (elaboration)))))) |ET| 
-1.0604255825458088757784480549162  |BT| (joint (elaboration (joint (elaboration (enablement))(joint))(joint))(joint (elaboration))) |ET| 
0.19101623536299605632393650012091  |BT| (elaboration (elaboration (elaboration (elaboration)))(elaboration)) |ET| 
-1.0604255825458088757784480549162  |BT| (joint (same-unit (elaboration))) |ET| 
-1.0604255825458088757784480549162  |BT| (elaboration (enablement (joint (joint (elaboration)(joint (joint (same-unit (background)(elaboration)))))))(background (joint))) |ET| 
0.32619646136777036282694552937755  |BT| (elaboration (joint)(joint)) |ET| 
-1.0604255825458088757784480549162  |BT| (joint (elaboration (joint (elaboration (enablement))(joint))(joint))(joint (elaboration))) |ET| 
2.1208511650916177515568961098325  |BT| (joint (same-unit (elaboration))) |ET| 
-1.0604255825458088757784480549162  |BT| (elaboration (joint)(joint)) |ET| 
-1.0604255825458088757784480549162  |BT| (joint (same-unit (elaboration))) |ET| 
-1.0604255825458088757784480549162  |BT| (same-unit (elaboration (joint (same-unit (elaboration))))) |ET| 
-1.0604255825458088757784480549162  |BT| (elaboration (joint (joint (same-unit (elaboration (enablement)(same-unit (elaboration)))))(elaboration))) |ET| 
0.98458686745302692600034788483754  |BT| (joint (elaboration (joint (joint (joint)))(joint (elaboration (elaboration))))(joint)) |ET| 
0.00058019758700855739164126134710386  |BT| (elaboration (elaboration (elaboration (elaboration (elaboration (elaboration (elaboration (httpwww.meez.com (A Meez is your 3D I))(joint (which (you creat))(and (use to represent yourself everywhere you go on the Internet ))))(Hairstyle))(Clothes))(Eye (Color )))(Everything))(elaboration (You (can personalize your Mee))(attribution (to (loo))(joint (like (you do in real lif))(or (try on a completely new look ))))))(Its (up to yo))) |ET| 
-1.0604255825458088757784480549162  |BT| (elaboration (joint)(joint)) |ET| 
-1.0604255825458088757784480549162  |BT| (elaboration (elaboration (joint (elaboration (joint (elaboration))))(joint (elaboration)(joint (elaboration (elaboration)))))) |ET| 
-1.0604255825458088757784480549162  |BT| (joint (elaboration (elaboration (joint (joint))))) |ET| 
1.0885311573204687896065934182843  |BT| (elaboration (background (elaboration))(elaboration)) |ET| 
-1.0604255825458088757784480549162  |BT| (joint (condition (attribution))) |ET| 
-1.0604255825458088757784480549162  |BT| (elaboration (elaboration)(attribution)) |ET| 
-1.0604255825458088757784480549162  |BT| (elaboration (elaboration (background (elaboration (elaboration)))(elaboration))(elaboration)) |ET| 
0.0023865717898164939825278452190105  |BT| (attribution (The (free account always say))(joint (same-unit (elaboration (elaboration (servers (overloaded anyway to beat this or a wa))(to (get a premium account will be appreciated Why not just use the free optio)))(you (have free account i get free RS account every month from this website httpacidcoupons.com in just simple 1 , 2 , 3 steps got some users under my nick and everything is automati)))(now (we have to complete simple offer)))(elaboration (and (in return they give us point))(which (can be converted into paypal money or anythin))))) |ET| 
-1.0604255825458088757784480549162  |BT| (joint (elaboration (elaboration (joint (joint))))) |ET| 
2.0651738702712725270771443319973  |BT| (joint (condition (attribution))) |ET| 
-1.0604255825458088757784480549162  |BT| (elaboration (joint (elaboration (elaboration (joint (joint)))))) |ET| 
2.1208511650916177515568961098325  |BT| (elaboration (elaboration (elaboration)(attribution))(elaboration)) |ET| 
-1.0604255825458088757784480549162  |BT| (elaboration (elaboration (attribution (elaboration (attribution (attribution)))))(elaboration)) |ET| 
-1.0604255825458088757784480549162  |BT| (elaboration (elaboration (elaboration (background (elaboration))(enablement))(attribution))(elaboration (condition (explanation))(elaboration))) |ET| 
2.1208511650916177515568961098325  |BT| (elaboration (elaboration (joint (joint)))) |ET| 
-1.0604255825458088757784480549162  |BT| (elaboration (elaboration (elaboration (elaboration (joint))))(attribution)) |ET| 
-1.0604255825458088757784480549162  |BT| (elaboration (elaboration (joint (joint (joint (joint)))))) |ET| 
1.3935292270984174223258378333412  |BT| (elaboration (elaboration)(elaboration (attribution))) |ET| 
-1.0604255825458088757784480549162  |BT| (elaboration (elaboration)(elaboration (attribution))) |ET| 
2.1208511650916177515568961098325  |BT| (elaboration (elaboration (elaboration (elaboration (joint (joint (attribution))))))(attribution (contrast (elaboration)(elaboration)))) |ET| 
-1.0604255825458088757784480549162  |BT| (elaboration (elaboration (elaboration))(condition (elaboration (elaboration)))) |ET| 
-1.0604255825458088757784480549162  |BT| (elaboration (joint (elaboration)(joint (attribution (elaboration (elaboration (joint))))))(elaboration (joint))) |ET| 
2.1208511650916177515568961098325  |BT| (elaboration (elaboration (elaboration)(elaboration))(elaboration)) |ET| 
-1.0604255825458088757784480549162  |BT| (elaboration (elaboration)(elaboration (attribution))) |ET| 
-1.0604255825458088757784480549162  |BT| (elaboration (elaboration)(elaboration)) |ET| 
2.1208511650916177515568961098325  |BT| (enablement (condition (elaboration (elaboration (elaboration))))) |ET| 
-1.0604255825458088757784480549162  |BT| (enablement (condition (elaboration (elaboration (elaboration))))) |ET| 
0.13395962632047886398112268580007  |BT| (elaboration (joint)(elaboration (elaboration)(elaboration (attribution)))) |ET| 
-1.0604255825458088757784480549162  |BT| (elaboration (elaboration)(elaboration (attribution))) |ET| 
-1.0604255825458088757784480549162  |BT| (elaboration (elaboration (attribution))(elaboration)) |ET| 
1.0321317750396765688947198214009  |BT| (elaboration (elaboration (same-unit (attribution (elaboration))(attribution (elaboration))))) |ET| 
-1.0604255825458088757784480549162  |BT| (elaboration (elaboration (elaboration (elaboration (same-unit))))) |ET| 
1.9999800545699981668690270453226  |BT| (elaboration (elaboration)(elaboration (attribution))) |ET| 
-1.0604255825458088757784480549162  |BT| (elaboration (elaboration (elaboration (same-unit)))) |ET| 
1.5632385194492561808488062524702  |BT| (elaboration (elaboration (attribution))(elaboration (attribution))) |ET| 
-1.0604255825458088757784480549162  |BT| (elaboration (elaboration)(elaboration (attribution (elaboration)))) |ET| 
0.040315847815439842527496239199536  |BT| (elaboration (elaboration (elaboration (enablement (elaboration))(background)))(elaboration)) |ET| 
-1.0604255825458088757784480549162  |BT| (elaboration (elaboration (attribution))(attribution (elaboration))) |ET| 
2.1208511650916177515568961098325  |BT| (elaboration (elaboration (elaboration (same-unit)))) |ET| 
-1.0604255825458088757784480549162  |BT| (elaboration (elaboration (elaboration (same-unit)))) |ET| 
1.4235888894918518055021650070557  |BT| (elaboration (elaboration (attribution (elaboration)))(attribution (elaboration))) |ET| 
-1.0604255825458088757784480549162  |BT| (elaboration (joint (joint (contrast (elaboration))))(attribution)) |ET| 
-1.0604255825458088757784480549162  |BT| (explanation (contrast (elaboration)(elaboration))) |ET| 
2.1208511650916177515568961098325  |BT| (elaboration (elaboration (attribution (joint)))(elaboration)) |ET| 
-1.0604255825458088757784480549162  |BT| (elaboration (elaboration (attribution))(elaboration)) |ET| 
-1.0604255825458088757784480549162  |BT| (elaboration (elaboration)(elaboration (attribution))) |ET| 
0.82106223835977643066286191242398  |BT| (elaboration (contrast (elaboration (attribution)(elaboration (joint)(elaboration (attribution)(attribution)))))(condition)) |ET| 
-1.0604255825458088757784480549162  |BT| (elaboration (elaboration (elaboration (same-unit (joint)))(background))(attribution (joint))) |ET| 
-1.0604255825458088757784480549162  |BT| (elaboration (joint (joint (contrast (elaboration))))(attribution)) |ET| 
-1.0604255825458088757784480549162  |BT| (joint (joint (joint (joint)))) |ET| 
-1.0604255825458088757784480549162  |BT| (elaboration (joint (joint (joint (elaboration))))(joint (joint (joint)))) |ET| 
1.5268072773540115605328537640162  |BT| (elaboration (elaboration (attribution))(elaboration)) |ET| 
-1.0604255825458088757784480549162  |BT| (elaboration (elaboration (attribution))(elaboration)) |ET| 
2.1208511650916177515568961098325  |BT| (elaboration (joint)(attribution)) |ET| 
-1.0604255825458088757784480549162  |BT| (elaboration (elaboration)(elaboration (attribution))) |ET| 
-1.0604255825458088757784480549162  |BT| (elaboration (contrast (elaboration (elaboration (joint (attribution)))(elaboration (elaboration (attribution))(elaboration (elaboration (attribution))(elaboration)))))) |ET| 
-1.0604255825458088757784480549162  |BT| (joint (joint (joint (joint)))) |ET| 
2.1208511650916177515568961098325  |BT| (elaboration (elaboration)(elaboration (attribution))) |ET| 
-1.0604255825458088757784480549162  |BT| (elaboration (joint (joint (joint))(elaboration))(attribution (joint (comparison)))) |ET| 
-1.0604255825458088757784480549162  |BT| (same-unit (joint (joint))) |ET| 
1.1849880512512265262614619132364  |BT| (elaboration (contrast (elaboration (elaboration (joint (attribution)))(elaboration (elaboration (attribution))(elaboration (elaboration (attribution))(elaboration)))))) |ET| 
0.44771581705383123317432136900607  |BT| (same-unit (joint (joint (joint (elaboration))))) |ET| 
-1.0604255825458088757784480549162  |BT| (elaboration (contrast (elaboration (elaboration (joint (attribution)))(elaboration (elaboration (attribution))(elaboration (elaboration (attribution))(elaboration)))))) |ET| 
-1.0604255825458088757784480549162  |BT| (elaboration (elaboration)(elaboration (attribution (elaboration)))) |ET| 
0.10261306869735128954879144203005  |BT| (elaboration (joint (joint (elaboration (same-unit (enablement (elaboration))))))) |ET| 
2.1208511650916177515568961098325  |BT| (explanation (contrast (elaboration (attribution)(explanation (contrast (elaboration (elaboration)(elaboration (attribution)(joint))))))(elaboration (elaboration (elaboration))(elaboration (elaboration (elaboration (attribution (elaboration))))(elaboration))))(elaboration)) |ET| 
-1.0604255825458088757784480549162  |BT| (elaboration (elaboration (joint (joint (joint (joint)))))) |ET| 
1.5453602480352564008114768512314  |BT| (elaboration (joint)(joint)) |ET| 
-1.0604255825458088757784480549162  |BT| (elaboration (elaboration (joint (elaboration (attribution)(joint (joint)))(joint))(attribution (elaboration)(elaboration (elaboration (contrast (attribution (elaboration)))))))) |ET| 
0.67864111785821701339216360793216  |BT| (elaboration (elaboration (joint (elaboration (contrast (elaboration (elaboration)))))(joint (elaboration (background (elaboration (elaboration))))(joint (attribution (elaboration)))))(elaboration)) |ET| 
-1.0604255825458088757784480549162  |BT| (elaboration (joint)(joint)) |ET| 
-1.0604255825458088757784480549162  |BT| (elaboration (elaboration (joint (elaboration (background (elaboration))))(joint))(elaboration)) |ET| 
0.060084402176468626466387945583847  |BT| (elaboration (explanation (Does (anyone have an account on TalkBurst with lots of experience points Oka))(joint (so (people have made a profile for me on TalkBurs))(and (some of the comments about me are censored ))))(attribution (Does (anyone have an account with experience point))(attribution (elaboration (that (they can use to reveal the comment))(I (really want to kno)))(what (is written about m))))) |ET| 
-1.0604255825458088757784480549162  |BT| (joint (elaboration (joint (joint (joint (elaboration)))))(attribution)) |ET| 
-1.0604255825458088757784480549162  |BT| (elaboration (joint)(joint)) |ET| 
-1.0604255825458088757784480549162  |BT| (elaboration (elaboration (joint)(joint (contrast)))(explanation)) |ET| 
2.1208511650916177515568961098325  |BT| (joint (joint (elaboration (attribution (elaboration (cause (condition (elaboration (attribution (joint (elaboration))))))))))) |ET| 
-1.0604255825458088757784480549162  |BT| (elaboration (joint (joint (joint (elaboration))))(joint (joint (joint)))) |ET| 
2.1157990480783173126155816134997  |BT| (elaboration (joint)(joint)) |ET| 
-1.0604255825458088757784480549162  |BT| (joint (joint (elaboration))) |ET| 
1.7656423582362774649112679981044  |BT| (elaboration (elaboration (joint)(joint (contrast)))(explanation)) |ET| 
-1.0604255825458088757784480549162  |BT| (elaboration (joint)(joint)) |ET| 
0.56696834905037540863759204512462  |BT| (joint (joint (joint (elaboration (elaboration))))) |ET| 
-1.0604255825458088757784480549162  |BT| (elaboration (elaboration (attribution (elaboration (elaboration))))) |ET| 
-1.0604255825458088757784480549162  |BT| (elaboration (attribution)) |ET| 
-1.0604255825458088757784480549162  |BT| (elaboration (elaboration (attribution))) |ET| 
0.083968171329829699445213009312283  |BT| (same-unit (attribution (joint (elaboration (Where (can i download Dj Earworm mash up 2009 blame it on the pop i am making a vide))(to (this son)))(and (i really want to kno)))(contrast (how (to download this onto a mac with out getting a virus and quic))(but (it is not on itunes and i cant use limewire !!))))(condition (PLEASEE (HELPPP ME 33 you can buy it from itunes.co))(if (he is selling i)))) |ET| 
-1.0604255825458088757784480549162  |BT| (elaboration (joint)(joint)) |ET| 
-1.0604255825458088757784480549162  |BT| (elaboration (elaboration (joint)(joint (contrast)))(explanation)) |ET| 
2.1208511650916177515568961098325  |BT| (elaboration (joint (elaboration (elaboration (attribution (attribution)))))(attribution (elaboration (attribution)))) |ET| 
-1.0604255825458088757784480549162  |BT| (elaboration (elaboration (attribution (elaboration (attribution (attribution)))))(elaboration)) |ET| 
-1.0604255825458088757784480549162  |BT| (elaboration (contrast (elaboration (elaboration (joint (attribution)))(elaboration (elaboration (attribution))(elaboration (elaboration (attribution))(elaboration)))))) |ET| 
-1.0604255825458088757784480549162  |BT| (elaboration (elaboration)(elaboration (explanation (elaboration (attribution (attribution (joint (elaboration (elaboration (attribution)))))))))) |ET| 
-1.0604255825458088757784480549162  |BT| (joint (attribution (joint (joint (attribution (elaboration)))))) |ET| 
0.64078527628730186371797117317328  |BT| (explanation (contrast (attribution)(elaboration))) |ET| 
-1.0604255825458088757784480549162  |BT| (elaboration (elaboration (joint)(attribution))) |ET| 
0.8536860696036441265022176594357  |BT| (elaboration (joint (joint (attribution (elaboration)))(joint (joint)))(elaboration)) |ET| 
-1.0604255825458088757784480549162  |BT| (joint (elaboration)(joint (elaboration))) |ET| 
-1.0604255825458088757784480549162  |BT| (elaboration (contrast (elaboration (joint (elaboration))))) |ET| 
1.7794244162593335634170443881885  |BT| (elaboration (joint (joint (elaboration))(elaboration (attribution)(joint)))(attribution (joint))) |ET| 
-1.0604255825458088757784480549162  |BT| (elaboration (elaboration (condition (elaboration)))(elaboration (elaboration (elaboration)))) |ET| 
0.64205739732301947420012311340543  |BT| (elaboration (joint (joint (elaboration)(joint (elaboration))))) |ET| 
-1.0604255825458088757784480549162  |BT| (joint (elaboration)(joint (elaboration))) |ET| 
-1.0604255825458088757784480549162  |BT| (joint (joint (elaboration))) |ET| 
-1.0604255825458088757784480549162  |BT| (elaboration (joint (joint (elaboration)(joint (elaboration))))(temporal)) |ET| 
0.61378322927434958433678957590018  |BT| (elaboration (elaboration (elaboration (joint))(elaboration (contrast (joint (joint (elaboration)))(attribution (joint)))))) |ET| 
0.0039613543439353110509060229560419  |BT| (elaboration (elaboration (joint (elaboration (contrast (attribution (attribution (attribution)(elaboration)))(attribution (attribution))))))) |ET| 
-1.0604255825458088757784480549162  |BT| (elaboration (elaboration (elaboration (elaboration (elaboration)))(elaboration))(elaboration (contrast))) |ET| 
1.7404414784725172893331546219997  |BT| (joint (joint (elaboration))) |ET| 
-1.0604255825458088757784480549162  |BT| (joint (joint (elaboration))) |ET| 
-1.0604255825458088757784480549162  |BT| (attribution (joint (elaboration (joint)))) |ET| 
1.2111201792418047062938057933934  |BT| (elaboration (elaboration (elaboration (contrast (elaboration (joint))))(elaboration))) |ET| 
-1.0604255825458088757784480549162  |BT| (elaboration (elaboration (elaboration (elaboration))(elaboration (contrast (elaboration))))) |ET| 
-1.0604255825458088757784480549162  |BT| (elaboration (joint (joint (joint (elaboration))))(joint (joint (joint)))) |ET| 
2.1208511650916177515568961098325  |BT| (elaboration (elaboration (elaboration))(condition (elaboration (elaboration)))) |ET| 
-1.0604255825458088757784480549162  |BT| (contrast (joint (elaboration)(joint (joint)))(joint)) |ET| 
0.54580056497752660327194007550133  |BT| (elaboration (same-unit (condition)(elaboration (condition)))(enablement (joint)(elaboration (elaboration)))) |ET| 
-1.0604255825458088757784480549162  |BT| (elaboration (elaboration (elaboration (elaboration))(condition))) |ET| 
0.026296979440457168841760449140565  |BT| (elaboration (elaboration (joint (same-unit (firefo)(condition (condition (if (i private browse can my neighbor see my histor))(if (im connected to her internet Ye)))(they (can ))))(and (probably do )))(joint (condition (Dont (be surprise))(if (you get arrested for stealing internet )))(History (is stored on your computer ))))(same-unit (elaboration (So (unless she hacks your PC or runs a network monito))(while (your online )))(you (should be saf)))) |ET| 
-1.0604255825458088757784480549162  |BT| (contrast (elaboration (attribution (elaboration (attribution (elaboration))))(joint))(attribution (joint (joint)))) |ET| 
-1.0604255825458088757784480549162  |BT| (elaboration (elaboration (joint)(joint (contrast)))(explanation)) |ET| 
-1.0604255825458088757784480549162  |BT| (joint (contrast (attribution))) |ET| 
1.5068164026684118805832213183749  |BT| (joint (elaboration (condition (joint))(elaboration (temporal)(elaboration (attribution)(condition))))(joint (attribution (elaboration (elaboration))))) |ET| 
-1.0604255825458088757784480549162  |BT| (enablement (condition (elaboration (elaboration (elaboration))))) |ET| 
1.6317385023267563237681088139652  |BT| (elaboration (elaboration (joint)(joint (contrast)))(explanation)) |ET| 
-1.0604255825458088757784480549162  |BT| (elaboration (elaboration (elaboration (temporal (attribution))(elaboration)))) |ET| 
0.035706838275170342533737510848368  |BT| (elaboration (enablement (httpwww.hulu.com (httpentertainment.att.netmovies httpwww.joost.com The only legal sit))(contrast (to (watch free movies online is Hulu.com The other sights are still activ))(joint (only (because they are located outside of the U))(and (so the US cant force them to shut down due to copyright infringement )))))(condition (contrast (elaboration (well (youtube is slightly different ))(that (more of them activly trying to enforce copyright laws )))(but (they cant be peanilize)))(if (a few videos slip through the crack)))) |ET| 
-1.0604255825458088757784480549162  |BT| (joint (contrast (attribution))) |ET| 
-1.0604255825458088757784480549162  |BT| (joint (elaboration (joint (attribution (elaboration)))(joint))(joint (attribution (elaboration)))) |ET| 
2.1208511650916177515568961098325  |BT| (contrast (elaboration (elaboration (elaboration)))(elaboration (elaboration (elaboration)))) |ET| 
0.8722801633363715945179706068302  |BT| (contrast (elaboration (attribution (elaboration (attribution (elaboration))))(joint))(attribution (joint (joint)))) |ET| 
-1.0604255825458088757784480549162  |BT| (elaboration (elaboration (elaboration))) |ET| 
1.7422431400139697377227321339888  |BT| (enablement (condition (elaboration (elaboration (elaboration))))) |ET| 
2.1208511650916177515568961098325  |BT| (elaboration (joint)(joint)) |ET| 
-1.0604255825458088757784480549162  |BT| (elaboration (contrast (elaboration (elaboration (attribution)(joint)))(elaboration (attribution)(condition (attribution (attribution)))))) |ET| 
1.9008783277225087537942727067275  |BT| (elaboration (contrast (joint (background))(joint))) |ET| 
-1.0604255825458088757784480549162  |BT| (enablement (condition (elaboration (elaboration (elaboration))))) |ET| 
-1.0604255825458088757784480549162  |BT| (elaboration (elaboration (condition)(elaboration (condition)))) |ET| 
2.1208511650916177515568961098325  |BT| (elaboration (contrast (elaboration (elaboration (attribution)(joint)))(elaboration (attribution)(condition (attribution (attribution)))))) |ET| 
-1.0604255825458088757784480549162  |BT| (elaboration (contrast (elaboration (elaboration (attribution)(joint)))(elaboration (attribution)(condition (attribution (attribution)))))) |ET| 
-1.0604255825458088757784480549162  |BT| (elaboration (contrast (attribution (attribution)))) |ET| 
2.1208511650916177515568961098325  |BT| (elaboration (elaboration (elaboration (condition (elaboration (elaboration)))))) |ET| 
-1.0604255825458088757784480549162  |BT| (elaboration (elaboration (elaboration (elaboration (same-unit))))) |ET| 
-1.0604255825458088757784480549162  |BT| (elaboration (elaboration (elaboration (elaboration)))) |ET| 
2.1208511650916177515568961098325  |BT| (contrast (attribution (attribution))) |ET| 
-1.0604255825458088757784480549162  |BT| (contrast (attribution (attribution))) |ET| 
2.1208511650916177515568961098325  |BT| (elaboration (elaboration (elaboration (elaboration)))) |ET| 
-1.0604255825458088757784480549162  |BT| (elaboration (elaboration)(elaboration)) |ET| 
-1.0604255825458088757784480549162  |BT| (elaboration (elaboration (elaboration (joint))(elaboration))(attribution)) |ET| 
2.0480585600298968351751227601198  |BT| (elaboration (contrast (attribution))) |ET| 
-1.0604255825458088757784480549162  |BT| (contrast (attribution (attribution))) |ET| 
-1.0604255825458088757784480549162  |BT| (elaboration (contrast (attribution))) |ET| 
2.1208511650916177515568961098325  |BT| (elaboration (elaboration (joint))(elaboration (elaboration)(elaboration))) |ET| 
-1.0604255825458088757784480549162  |BT| (elaboration (elaboration)(elaboration)) |ET| 
-1.0604255825458088757784480549162  |BT| (elaboration (contrast (attribution))) |ET| 
-1.0604255825458088757784480549162  |BT| (joint (contrast (attribution))) |ET| 
-1.0604255825458088757784480549162  |BT| (elaboration (elaboration (contrast (attribution)))(joint)) |ET| 
0.018780834920821359856901722196199  |BT| (topic-comment (elaboration (elaboration (elaboration (What (is a safe websit))(where (you can see new Degrassi episodes for free )))(background (explanation (I (searched on google for Degrassi season 9 episode))(joint (elaboration (because (I want to see the one))(that (were n't on Teennick ye)))(an)))(attribution (when (I went to one website , my virus protection sai))(it (had a virus on it )))))(elaboration (Does (anyone know a virus free websit))(where (I can see unseen Degrassi season 9 episodes for free ))))(attribution (try (this - you have all the tv show))(with (all the episodes Take care :-RRB- http://www.watchshows.in)))) |ET| 
-1.0604255825458088757784480549162  |BT| (elaboration (elaboration (condition)(elaboration (condition)))) |ET| 
0.31754705267267102630768249582616  |BT| (contrast (attribution (elaboration))) |ET| 
2.1080375728513454092194479017053  |BT| (elaboration (contrast (attribution))) |ET| 
-1.0604255825458088757784480549162  |BT| (elaboration (elaboration (elaboration (enablement (elaboration (elaboration))))(elaboration (joint (same-unit (condition (elaboration))))))(attribution (condition (elaboration)))) |ET| 
2.0992343634810572972071440744912  |BT| (elaboration (joint (elaboration))(condition)) |ET| 
0.21962014524667772263910592300817  |BT| (elaboration (elaboration (elaboration (elaboration)(elaboration (elaboration (elaboration)))))) |ET| 
-1.0604255825458088757784480549162  |BT| (elaboration (joint)(joint (elaboration))) |ET| 
2.1208511650916177515568961098325  |BT| (elaboration (elaboration (elaboration (elaboration)))(elaboration (elaboration (elaboration (attribution (explanation)))))) |ET| 
-1.0604255825458088757784480549162  |BT| (elaboration (elaboration (elaboration))) |ET| 
-1.0604255825458088757784480549162  |BT| (elaboration (elaboration (elaboration (elaboration)))(elaboration (elaboration (elaboration (attribution (explanation)))))) |ET| 
0.45453947703765584797963583696401  |BT| (contrast (elaboration (joint (joint)(joint (elaboration (elaboration)(joint (joint)))))(joint (elaboration)))) |ET| 
-1.0604255825458088757784480549162  |BT| (elaboration (joint)(joint (elaboration))) |ET| 
-1.0604255825458088757784480549162  |BT| (elaboration (joint (joint (temporal)))(joint)) |ET| 
0.090785915516870360764123404351267  |BT| (elaboration (elaboration (contrast)(enablement))(elaboration)) |ET| 
2.0338330388384942004620370425982  |BT| (joint (joint (elaboration))) |ET| 
1.9783185949012072057939803926274  |BT| (elaboration (joint (joint (temporal)))(joint)) |ET| 
-1.0604255825458088757784480549162  |BT| (elaboration (elaboration (elaboration (elaboration)))(elaboration (elaboration (elaboration (attribution (explanation)))))) |ET| 
-1.0604255825458088757784480549162  |BT| (elaboration (elaboration (elaboration (joint)(condition (elaboration (elaboration)))))) |ET| 
0.06419280796370424591046344175993  |BT| (elaboration (elaboration (attribution (elaboration (elaboration)))(background (joint)))(elaboration (elaboration (elaboration)(manner-means)))) |ET| 
-1.0604255825458088757784480549162  |BT| (elaboration (joint (joint (temporal)))(joint)) |ET| 
2.1208511650916177515568961098325  |BT| (elaboration (elaboration (elaboration (elaboration)))(elaboration (elaboration (elaboration (attribution (explanation)))))) |ET| 
-1.0604255825458088757784480549162  |BT| (elaboration (joint (joint (elaboration)))) |ET| 
-1.0604255825458088757784480549162  |BT| (elaboration (elaboration (elaboration (elaboration)))(elaboration (elaboration (elaboration (attribution (explanation)))))) |ET| 
-1.0604255825458088757784480549162  |BT| (elaboration (elaboration)) |ET| 
